tree
version=v4
num_class=1
num_tree_per_iteration=1
label_index=0
max_feature_idx=41
objective=binary sigmoid:1
feature_names=cross_cat_affinity_loo cross_cat_carts_loo cross_cat_items_loo cross_cat_trans_loo cross_cat_view_intensity cross_cat_views_loo cross_sessions_with_item cross_views_this_item ctx_day_of_week ctx_hour ctx_is_weekend ctx_session_duration ctx_session_length ctx_session_position ctx_time_bucket ctx_time_in_session item_age_days item_cart_rate item_conversion_rate item_n_carts_global item_n_trans_global item_n_views item_recency_days item_total_events item_unique_visitors item_views_per_visitor user_avg_session_duration user_avg_session_length user_avg_views_per_item user_events_per_session user_is_buyer user_is_carter user_lifespan_days user_n_carts_global user_n_sessions user_n_trans_global user_n_views user_recency_days user_total_events user_unique_items emb_lightgcn_dot emb_twotower_dot
feature_infos=[0:12] [0:103] [0:114] [0:17] [0:1] [0:671] [1:123] [0:308] [0:6] [0:23] [0:1] [0:24838.967000000001] [1:189] [0:188] [0:3] [0:24165.577000000001] [0:86] [0.0027777777777777779:0.50943396226415094] [0.0027777777777777779:0.25333333333333335] [0:112] [0:50] [0:703] [0:86] [1:749] [1:363] [0:154.5] [0:20489.720936416186] [1:151.59999999999999] [0:106] [1:122] [0:1] [0:1] [0:86] [0:288] [1:365] [0:179] [0:1311] [0:86] [1:1765] [1:933] [-5.7006039619445801:27.535320281982422] [-108.34170532226562:177.78675842285156]
tree_sizes=6669 6786 6780 6790 6800 6799 6791 6776 6834 6829 6826 6855 6866 6875 6897 6898 6931 6898 6887 6886 6896 6908 6884 6896

Tree=0
num_leaves=63
num_cat=0
split_feature=31 17 30 40 4 1 40 36 40 39 7 39 34 1 33 40 17 23 23 7 21 39 40 7 35 7 0 35 7 5 36 40 23 7 7 7 17 30 40 7 40 7 33 40 4 40 23 23 36 40 5 5 5 23 40 27 5 4 32 16 40 17
split_gain=580180 123392 28096.3 24708.6 21029.5 11454.6 10823 7833.05 9626.49 7988.71 4008.98 3035.51 2895.38 2349.81 19831.6 2279.05 1938.71 1801.18 1790.85 1790.51 1742.02 1280.58 1465.88 1070.79 1063.45 993.224 887.972 845.934 796.352 766.897 745.587 1845.71 703.357 699.274 633.92 609.068 587.491 522.89 371.444 340.569 560.914 336.824 317.37 447.413 312.403 297.015 600.579 262.73 246.93 242.683 228.972 213.734 188 176.229 173.319 269.351 149.43 140.436 135.112 133.866 228.86 116.655
threshold=1.0000000180025095e-35 0.019292803970223329 1.0000000180025095e-35 1.4287540316581728 0.14339826839826844 1.0000000180025095e-35 2.1013355255126958 21.500000000000004 2.8395694494247441 87.500000000000014 1.5000000000000002 20.500000000000004 257.00000000000006 1.0000000180025095e-35 1.5000000000000002 0.87059876322746288 0.015209345362017119 53.500000000000007 14.500000000000002 1.5000000000000002 23.500000000000004 52.500000000000007 3.7750546932220463 3.5000000000000004 1.5000000000000002 1.5000000000000002 0.015504807692307694 1.5000000000000002 2.5000000000000004 2.5000000000000004 3.5000000000000004 2.1013355255126958 45.500000000000007 1.0000000180025095e-35 1.5000000000000002 7.5000000000000009 0.010025125628140705 1.0000000180025095e-35 2.2298083305358891 1.5000000000000002 2.1013355255126958 1.5000000000000002 1.5000000000000002 1.1872266530990603 0.098411097099621703 1.3648548722267153 31.500000000000004 118.50000000000001 156.00000000000003 3.5729601383209233 6.5000000000000009 10.500000000000002 1.5000000000000002 5.5000000000000009 1.9344824552536013 9.2899159663865571 2.5000000000000004 0.19242713807931203 80.500000000000014 1.5000000000000002 0.23769606649875644 0.013745866792631083
decision_type=2 2 2 2 2 2 2 2 2 2 2 2 2 2 2 2 2 2 2 2 2 2 2 2 2 2 2 2 2 2 2 2 2 2 2 2 2 2 2 2 2 2 2 2 2 2 2 2 2 2 2 2 2 2 2 2 2 2 2 2 2 2
left_child=2 6 30 4 11 19 17 13 9 10 -9 18 20 39 24 -4 28 54 27 32 -10 37 58 -20 -15 61 44 -3 33 -28 31 45 -6 -8 -11 53 -27 50 -16 40 -5 -14 -7 -44 -17 -1 -47 -33 -30 -49 -18 -35 -24 -13 -2 56 -56 -38 -23 60 -32 -19
right_child=1 3 15 7 5 42 16 8 12 34 -12 35 41 14 38 26 21 25 23 -21 -22 22 52 -25 -26 36 29 -29 48 -31 59 47 -34 51 -36 -37 57 -39 -40 -41 -42 -43 43 -45 -46 46 -48 49 -50 -51 -52 -53 -54 -55 55 -57 -58 -59 -60 -61 -62 -63
leaf_value=-2.3690985334257486 -2.3822893775306215 -1.9780508866315787 -2.3423713708203651 -1.8607928453510734 -1.933119894501935 -2.3831196398291614 -1.829676982492709 -2.0877037982611042 -1.8017250837867365 -2.3234875478496733 -1.8414976706658879 -2.205558838242045 -2.2330032128059716 -2.3620799232364589 -1.8641520992586056 -1.9538462226532149 -1.9565607127223805 -2.3815888541358898 -2.2797830774226329 -1.7838781194003923 -1.867652825380792 -2.3822375499315771 -1.8437266730843367 -1.9057891416270456 -1.9134516526367014 -2.3772027724703366 -1.8326953288071857 -2.3798604634030585 -1.9269182256126576 -2.2883471539019822 -2.3770759379627839 -1.8179532153407951 -2.2705464561327551 -2.2340342755069447 -2.1527608296884315 -1.8977679197868462 -2.1072931570284923 -1.8332804175848674 -1.7916983040600081 -1.7705482351831625 -1.7870845707524547 -2.0274730424863079 -2.361586679336483 -2.047939380006488 -1.7808611731675339 -1.8751348818182834 -2.3663316110985284 -2.3433823823604794 -2.2589474351145427 -1.9112336891480695 -2.2017516830187338 -2.3642047575393952 -2.0564396240391583 -2.362457087246411 -1.9506510588146631 -2.3809262260367969 -2.2977284165016174 -1.8537516596334469 -2.1576491851164188 -2.3811384284373336 -1.9435867069829809 -2.2405457016226094
leaf_weight=176.92508445680141 1204.2302872389555 146.15245373919606 25.151156719774008 374.09747384488583 161.59320393949747 83.730850305408239 7.8693205416202536 272.41210331022739 1836.911506626755 165.32846869155765 434.40613776445389 17.952391467988491 46.866886492818594 178.37321362271905 259.74669327586889 41.992410566657782 24.886158782988787 25.758983697742224 176.67509675770998 705.85785371437669 2493.3123568631709 36.685321837663651 23.745000686496496 20.529911182820797 13.259522542357443 8.039067439734934 15.81610196828842 14.09667459502816 27.690038546919823 20.976701229810715 7.8692279867827875 18.54548587277532 17.523299019783735 72.837497666478157 80.110943887382746 6.4778045266866675 10.291733376681803 109.78299804776907 2042.7625727206469 3753.0010880045593 1807.2672483548522 35.785719137638807 24.719099245965481 19.731304462999105 194.42669947817922 8.6619046553969401 17.058441154658794 6.811460826545952 7.6010799147188655 5.0654407776892185 17.556099411100149 54.250316325575113 28.872892111539841 325.32909347489476 6.7996007241308707 19.644763391464949 5.5272410623729229 28.077435526996851 7.1452096812427035 10119.458232060075 3.7663033306598663 31.515734944492579
leaf_count=3062 21224 1087 417 1657 1016 1479 10 2765 4653 2665 1621 234 642 3049 1215 251 167 455 2657 1732 10540 648 66 100 57 142 34 249 149 316 139 37 259 997 934 20 106 321 5346 6554 4191 289 424 178 299 25 295 114 108 16 228 931 254 5571 32 347 84 105 79 178045 12 441
internal_value=-2.0751 -1.89608 -2.36512 -1.85108 -2.03007 -1.88412 -2.293 -1.82878 -1.87635 -2.02115 -1.93591 -2.2395 -1.84518 -1.79856 -1.84032 -1.88757 -2.07151 -2.36239 -2.13724 -1.8202 -1.83957 -1.98263 -2.12844 -2.23888 -2.32902 -2.16321 -1.84578 -2.01352 -2.20261 -2.0844 -2.3789 -2.29063 -1.9656 -2.25916 -2.26725 -2.34424 -1.9939 -1.8922 -1.79966 -1.7811 -1.7995 -2.14142 -2.32596 -2.21935 -1.80986 -2.34581 -2.1903 -1.93405 -1.99439 -2.14133 -2.05261 -2.28948 -1.9531 -2.3539 -2.37922 -2.26582 -2.09188 -1.91427 -2.34251 -2.38094 -2.21776 -2.30388
internal_weight=27935.3 17272.8 10662.5 15514 1720.37 1013.16 1758.81 13793.6 5365.13 952.258 706.818 707.213 4412.88 8428.51 2494.14 298.363 418.922 1339.88 357.454 884.974 4330.22 248.674 96.4484 197.205 191.633 103.683 273.212 160.249 170.248 36.7928 10364.2 233.068 179.117 134.957 245.439 349.759 46.4082 152.225 2302.51 5934.37 2181.36 82.6526 128.181 44.4504 236.419 202.645 25.7203 30.4224 35.2911 11.8769 42.4423 127.088 52.6179 343.281 1236.2 31.9716 12.3268 38.3692 43.8305 10131.1 11.6355 57.2747
internal_count=271140 88078 183062 61184 15006 5088 26894 46178 24109 7985 4386 9918 16124 22069 9667 1317 3958 22936 4093 3007 15193 1763 1047 2757 3106 1249 900 1336 2195 350 181745 3549 1275 1938 3599 5825 353 716 6561 12402 5848 931 2081 602 550 3382 320 167 257 130 395 1928 320 5805 21687 463 116 211 727 178196 151 896
is_linear=0
shrinkage=1


Tree=1
num_leaves=63
num_cat=0
split_feature=31 41 35 40 7 40 41 36 24 7 7 36 24 40 20 1 1 18 41 7 36 40 40 7 41 17 35 36 40 7 24 40 23 40 34 16 40 24 27 41 7 36 18 19 24 15 40 37 40 24 26 17 40 7 37 27 18 40 23 18 17 40
split_gain=303821 61804.5 19036.2 8591.12 7657.05 3718.05 3422.78 2442.7 2201.81 3257.52 3749.47 2047.78 1984.26 1957.77 1867.74 1737.56 1287.51 884.428 875.758 758.228 703.86 1289.89 685.107 575.163 486.706 468.343 413.635 402.18 1654.06 330.396 265.646 363.958 207.704 174.959 158.563 121.581 188.802 119.171 86.1146 80.5538 166.274 104.156 78.3887 75.7862 73.6968 64.1862 61.8801 265.233 55.372 211.547 72.991 55.0231 54.628 53.4405 49.804 46.4205 30.3418 27.7154 26.5865 22.0606 20.0278 16.612
threshold=1.0000000180025095e-35 -3.6143884658813472 1.0000000180025095e-35 1.2013782858848574 1.5000000000000002 3.2333745956420903 -1.0557500123977659 8.5000000000000018 16.500000000000004 1.5000000000000002 1.0000000180025095e-35 69.500000000000014 11.500000000000002 5.8303985595703134 1.0000000180025095e-35 1.0000000180025095e-35 1.0000000180025095e-35 0.017130699534133015 -1.4503690004348753 1.0000000180025095e-35 3.5000000000000004 1.3648548722267153 1.7621098160743716 1.0000000180025095e-35 -1.4503690004348753 0.025559366323697538 1.5000000000000002 80.500000000000014 2.491928339004517 2.5000000000000004 24.500000000000004 2.5883827209472661 6.5000000000000009 6.1252911090850839 257.00000000000006 1.5000000000000002 3.511784672737122 2.5000000000000004 38.499275362318848 0.9720783829689027 1.5000000000000002 8.5000000000000018 0.011940404904476763 68.000000000000014 7.5000000000000009 31.552500000000006 1.8466759920120241 2.5000000000000004 1.9799548387527468 2.5000000000000004 386.05568584070801 0.016194597429845272 1.9570437669754031 7.5000000000000009 19.500000000000004 13.019607843137257 0.03618823118561202 1.2437334060668948 6.5000000000000009 0.012698540675642992 0.031662489557226406 0.3291402012109757
decision_type=2 2 2 2 2 2 2 2 2 2 2 2 2 2 2 2 2 2 2 2 2 2 2 2 2 2 2 2 2 2 2 2 2 2 2 2 2 2 2 2 2 2 2 2 2 2 2 2 2 2 2 2 2 2 2 2 2 2 2 2 2 2
left_child=2 5 20 4 7 48 12 16 27 10 -10 15 22 19 52 24 18 25 -3 -14 21 61 26 -9 -6 45 -5 44 -29 -11 -23 -32 -25 38 -24 36 -22 -17 -27 40 41 -16 -15 46 -8 51 -37 -48 56 -50 -51 -7 -4 58 -45 -43 -2 -58 -13 -35 -52 -1
right_child=1 3 14 6 11 17 8 23 9 29 -12 53 13 42 39 37 -18 -19 -20 -21 35 30 34 32 -26 33 -28 28 -30 -31 31 -33 -34 59 -36 43 -38 -39 -40 -41 -42 55 -44 54 -46 -47 47 -49 49 50 60 -53 -54 -55 -56 -57 57 -59 -60 -61 -62 -63
leaf_value=-0.054031663543500523 -0.054144058935373912 -0.035431113256851471 -0.05381656006646212 0.23109593531239445 0.093532724853709448 -0.0121806371043231 0.34848542791218234 0.37133384110068368 0.3563519854347903 0.31136529834911875 0.24184705266955453 0.080805497894274117 0.35193500463453603 0.18310273037117897 0.24362997997926411 0.2364420084152617 -0.053463706639893617 0.31441830224014083 0.27112377089925593 0.10061479623121371 -0.048309815670985475 0.31964338287397309 0.31297200000337894 0.087541500521975013 0.33158479258301493 0.041723082588059374 0.012689150768204467 0.13623730457876712 0.32864450491600877 0.33855767150661936 -0.027767033977986678 0.27436571879478755 -0.030742032419639843 0.16544404910846189 0.14940523943660658 -0.053925290145720652 0.32554891532913516 -0.034005853000756932 0.24300197599450402 0.34234042690590982 0.31536253091671795 -0.048397716953374928 0.32509536148203005 0.19058952245295482 0.33660335188944712 -0.037681198956375173 0.022615345367474143 -0.049018109763303119 0.25294484390626726 0.11623041863857653 -0.0481235939863984 0.19411553077878832 0.10050235131850525 0.14927711947802155 -0.041284756737637138 0.14431999763585843 -0.042799337885163755 0.13186572860017068 -0.053328874274798765 0.27612444033680961 0.027154960780407102 -0.022273510453678425
leaf_weight=91.29731173440814 1186.7491839788854 26.160108376294374 34.64168206974864 81.812498021870852 23.106850776821375 6.3077657930552942 4454.528312433511 8.6883535683155042 948.53768065571785 1938.2601448334754 2988.9710621014237 3.1342093646526328 31.605236500501633 15.182949077337978 12.777029458433391 3.5460975393652907 46.450083799660206 74.826776247471571 195.16031341999769 418.51817344874144 8.1760322228074056 31.703853562474251 744.62269812449813 40.403010465204716 784.78389225155115 25.268251746892933 29.596091561019421 123.09985954686999 1469.7567383013666 3662.763600487262 20.038096770644188 18.460856400430202 358.30981285870075 13.005935989320276 17.974740143865347 7799.5760396495461 4.4887862205505362 38.134370014071465 5.9803424403071395 286.86452404409647 71.799006778746843 6.636155251413582 165.01441638171673 4.4234769418835631 4196.3944918587804 44.769730839878321 138.87951426208019 1745.871644616127 5.7762030586600295 6.7164137363433829 115.45908879488707 5.3154284954071045 5.8678393661975852 2.9721901044249526 3.4702706336975098 4.3434230275452137 3.9279428198933592 3.35997349396348 41.577278524637222 29.035772249102592 8.8454147055745107 79.859612677246332
leaf_count=1667 21867 360 570 521 220 96 5735 16 1277 4701 14322 40 50 97 55 19 845 204 1091 4113 147 68 1964 475 1637 251 412 1267 2724 5729 342 77 5931 85 181 143705 4 637 21 371 132 96 370 48 6984 688 2282 31946 24 66 1941 29 62 19 64 31 69 32 753 98 117 1395
internal_value=0.191188 0.287555 -0.0355301 0.30818 0.195166 -0.0195172 0.316518 0.0678167 0.322066 0.304597 0.269516 0.290808 0.243384 0.175241 0.29261 0.308684 0.184821 0.178442 0.23487 0.119013 -0.0495117 0.0347038 0.292266 -0.00933841 0.324906 0.0981403 0.173749 0.338301 0.313873 0.329206 0.213598 0.120262 -0.0185544 0.180616 0.309324 -0.05161 0.0979578 -0.00587878 0.0867396 0.326727 0.276744 0.151801 0.314236 -0.051816 0.342762 -0.0102408 -0.0519459 -0.0437279 -0.0500526 -0.0196752 -0.0335568 0.089669 -0.0294602 -0.0273926 0.0949098 0.0331055 -0.0535093 0.0433183 -0.0422548 0.24664 -0.042553 -0.0394582
internal_weight=34763.6 24394.4 10369.2 22859.1 1572.43 1535.34 21286.6 675.172 19782.3 9538.53 3937.51 897.255 1504.33 630.321 422.93 849.571 267.771 204.51 221.32 450.123 9946.25 241.36 874.006 407.401 807.891 129.683 111.409 10243.8 1592.86 5601.02 70.2028 38.499 398.713 73.2903 762.597 9704.89 12.6648 41.6805 31.2486 382.42 95.5556 23.7566 180.197 9692.22 8650.92 56.3929 9684.33 1884.75 1330.83 136.797 131.021 11.6232 40.5095 47.6837 7.89375 10.9796 1194.04 7.28792 44.7115 42.0417 124.305 171.157
internal_count=271140 88078 183062 62490 12043 25588 50447 8718 42739 26029 15599 3325 7708 4630 1317 2513 2296 1472 1451 4163 181745 3549 3078 6422 1857 1268 933 16710 3991 10430 487 419 6406 455 2145 178196 151 656 272 685 314 182 467 178045 12719 813 177933 34228 24116 2148 2124 125 632 812 112 127 21968 101 793 183 2058 3062
is_linear=0
shrinkage=0.05


Tree=2
num_leaves=63
num_cat=0
split_feature=31 41 30 40 4 40 5 7 7 40 41 41 7 7 36 40 35 36 40 24 21 40 38 19 40 24 40 7 33 24 40 17 35 7 37 40 24 40 40 24 24 41 40 0 36 41 40 24 26 24 7 41 17 7 21 17 41 28 40 17 40 36
split_gain=199763 37176.7 14892.9 4379.97 5140.7 3109.83 2073.99 2640.67 1992.2 2112.42 1768.31 1066.32 936.284 746.236 678.296 3624.57 898.568 667.88 1001.87 541.208 500.411 391.813 381.911 335.667 335.31 702.084 303.398 291.375 297.859 149.581 254.413 126.392 111.533 96.777 90.6661 396.533 503.737 179.429 84.0639 77.1391 68.9221 57.4571 61.5727 55.799 202.74 56.1938 55.4754 170.154 64.9073 51.1785 28.4221 52.4288 20.7675 59.8181 20.5053 19.1188 18.1218 17.6618 34.8841 76.7134 17.1411 78.5412
threshold=1.0000000180025095e-35 -3.6143884658813472 1.0000000180025095e-35 1.1595149636268618 0.089917365198264085 3.2333745956420903 4.5000000000000009 1.5000000000000002 1.0000000180025095e-35 4.6776499748229989 -1.6603651046752927 -0.69904497265815724 1.5000000000000002 1.0000000180025095e-35 58.500000000000007 3.2804996967315678 14.500000000000002 3.5000000000000004 1.3648548722267153 7.5000000000000009 16.500000000000004 4.8197805881500253 27.500000000000004 1.5000000000000002 2.0756468772888188 17.500000000000004 7.6827375888824472 3.5000000000000004 1.5000000000000002 24.500000000000004 2.5883827209472661 0.015444245676803818 62.500000000000007 5.5000000000000009 2.5000000000000004 1.7828524112701418 8.5000000000000018 6.1252911090850839 1.9570437669754031 2.5000000000000004 33.500000000000007 -6.8353188037872306 5.3539316654205331 0.015504807692307694 5.5000000000000009 1.6340885162353518 1.9799548387527468 2.5000000000000004 386.05568584070801 15.500000000000002 1.5000000000000002 1.0317919254302981 0.032644217107132716 1.5000000000000002 40.500000000000007 0.031662489557226406 0.50513052940368663 1.9845809792843694 0.3291402012109757 0.027460098026894562 2.1519353389739995 4.5000000000000009
decision_type=2 2 2 2 2 2 2 2 2 2 2 2 2 2 2 2 2 2 2 2 2 2 2 2 2 2 2 2 2 2 2 2 2 2 2 2 2 2 2 2 2 2 2 2 2 2 2 2 2 2 2 2 2 2 2 2 2 2 2 2 2 2
left_child=2 5 17 4 13 46 14 8 -8 -10 39 38 20 -3 24 16 -16 18 57 41 -12 -17 23 -15 25 -5 31 28 -9 -20 -31 -21 -33 -24 35 -19 -37 -38 -4 -6 -26 42 -7 50 -45 -46 52 -48 -49 -14 51 56 -2 -54 -28 -50 -13 -1 -59 -60 -36 -62
right_child=1 3 11 6 10 19 7 27 9 -11 12 43 49 22 15 21 -18 34 29 26 -22 -23 33 -25 40 -27 54 -29 -30 30 -32 32 -34 -35 60 36 37 -39 -40 -41 -42 -43 -44 44 45 -47 47 48 55 -51 -52 -53 53 -55 -56 -57 -58 58 59 -61 61 -63
leaf_value=-0.045209243631975066 -0.054099395826734835 0.31230319096421516 -0.05348248340057199 0.25254487691998212 0.15572765755522383 0.045725022443330987 0.27127617428302919 0.19216066403125312 0.12323576831918721 0.21802829396085832 0.19650018491875174 0.060426345092890146 0.2539432345592228 0.12337922185599626 0.14054952525037354 0.22011224367755036 -0.022937690311638892 -0.051250428280863194 0.24386761258558851 -0.053059223183576726 0.059739386308923871 0.26227323745499581 -0.041881662346312944 -0.043349938066563211 0.26037274570279623 0.1986179593674971 0.22776216277343517 0.25788861299908389 0.23931913612082889 -0.027040998565997301 0.21561861816288436 0.14139158936484467 0.008478535080453117 0.13045514594114407 -0.053868291047335627 0.31605654314502779 -0.0034080302995170538 0.29320990525214174 0.11812157458789337 -0.047461442627318537 0.2504246019406538 0.25689267257495396 0.21853029093566467 0.25244149883036571 -0.050554182570591279 0.15207752145447298 0.20577159409942417 0.10264423298277069 -0.047598984061509232 0.21119781904387944 0.26114850674434231 0.23931898838992646 -0.050907037844673944 0.14135598889152032 0.12764738368227876 0.025431390343997565 0.17150582162766626 -0.050134056985011291 0.21670596472730264 -0.045752771676139489 0.10759579436894118 -0.048304034663926701
leaf_weight=143.19251326471567 1122.6408070735633 18.449719905853271 32.987338982522488 2506.963920392096 4.0403271056711665 9.345109552145006 509.55505055189133 441.35927407443523 1435.7495530806482 1002.4986626841128 172.02082741633058 8.0960086137056368 779.3993573077023 85.936057593673468 427.23785892501473 811.1646566092968 104.18918830528855 753.87050101906061 39.53565227240324 29.558010771870613 111.18286826089025 2126.96966406703 278.44880758970976 45.552642527967691 9145.1717603616416 829.76416946202517 24.989323943853378 1923.6424613632262 1926.1560758985579 19.585795931518078 22.463462315499783 28.790695734322071 34.041625119745731 7.4262668304145327 7108.5786261633039 13.557215712964533 139.90713829174638 4.2896217145025721 8.040749177336691 66.51231362298131 3323.6206309273839 79.008445408195257 12.944791674613951 30.249433919787407 9.2426029406487924 4.1450587511062613 6.9394877031445494 7.340017929673194 111.01883384585381 120.50055305659771 356.19624368846416 57.152436874806881 14.729736499488356 4.4457676522433749 13.02749592810869 9.0353688821196538 10.327800408005713 12.827454805374147 3.9021223336458188 5.7526958398520947 7.204133763909339 1268.2511563748121
leaf_count=2669 21655 28 565 3811 25 90 564 1543 9110 2861 1016 74 1280 821 2917 1992 1283 14479 68 515 1239 2876 4874 721 9519 2986 73 2648 3905 342 77 207 336 54 137013 59 2356 26 65 1040 5009 132 32 42 131 27 24 66 1941 368 274 93 270 43 87 117 46 245 41 107 103 24160
internal_value=0.157655 0.222856 -0.0349273 0.235788 0.15754 -0.0190174 0.240768 0.217809 0.181213 0.162286 0.208929 0.226335 0.223421 0.0095641 0.249378 0.228971 0.108505 -0.0490888 0.0318986 0.149102 0.143226 0.250714 -0.00452114 0.065689 0.253843 0.2392 0.0807249 0.242899 0.230615 0.174219 0.104473 0.0309226 0.0707205 -0.0369482 -0.0512468 -0.0361713 0.0357261 0.00734007 -0.017722 -0.0337418 0.257742 0.235429 0.15137 0.2474 0.182657 0.0180461 -0.0496388 -0.0190048 -0.0327952 0.248466 0.253495 0.214419 -0.0532187 -0.00128683 0.197734 -0.0418967 0.128575 -0.0387803 0.00213515 0.0702372 -0.0528809 -0.0473359
internal_weight=39770.7 29711.4 10059.4 28203.5 1689.47 1507.86 26514 7238.96 2947.8 2438.25 1253.66 516.438 1183.1 435.813 19275.1 3469.56 531.427 9542.92 247.26 231.705 283.204 2938.13 417.364 131.489 15805.5 3336.73 130.407 4291.16 2367.52 81.5849 42.0493 92.3903 62.8323 285.875 9295.66 911.624 157.754 144.197 41.0281 70.5526 12468.8 101.298 22.2899 475.41 43.6371 13.3877 1276.15 134.334 127.394 899.9 431.772 75.5762 1141.82 19.1755 38.0168 120.054 18.4238 165.675 22.4823 9.65482 8384.03 1275.46
internal_count=271140 88078 183062 62490 11466 25588 51024 20631 12535 11971 4968 1317 3903 6498 30393 9068 4200 181745 3549 1472 2255 4868 6470 1542 21325 6797 1218 8096 5448 487 419 1058 543 4928 178196 16920 2441 2382 630 1065 14528 254 122 687 200 158 24116 2148 2124 1648 487 213 21968 313 160 2058 120 3062 393 148 161276 24263
is_linear=0
shrinkage=0.05


Tree=3
num_leaves=63
num_cat=0
split_feature=31 19 30 18 40 38 1 7 5 7 33 33 4 24 1 20 1 38 40 34 20 40 38 40 38 7 24 40 24 40 40 24 23 37 7 24 16 40 18 38 40 37 7 4 20 38 4 24 38 40 23 40 0 5 7 4 28 40 20 7 6 25
split_gain=145109 22199.4 12393.9 5789.56 2835.3 5375.9 3137.45 1448.1 1231.44 1369.44 1403.01 979.356 919.129 1084.89 850.362 779.304 664.232 635.84 814.083 592.627 492.391 400.418 329.622 2242.47 231.674 216.481 188.117 168.103 159.872 207.87 134.879 245.582 122.03 118.032 107.215 102.715 101.142 101.245 80.9405 266.554 73.7644 287.862 302.605 64.5344 56.0189 54.2309 54.0364 77.8139 52.7866 43.9117 38.2043 35.9538 33.3337 143.506 42.9744 22.6665 17.1091 31.4028 47.4868 15.9821 17.0886 12.3244
threshold=1.0000000180025095e-35 1.0000000180025095e-35 1.0000000180025095e-35 0.023032714412024761 1.6313579678535464 29.500000000000004 1.0000000180025095e-35 2.5000000000000004 6.5000000000000009 1.5000000000000002 2.5000000000000004 1.5000000000000002 0.2422647527910686 18.500000000000004 1.5000000000000002 1.0000000180025095e-35 1.0000000180025095e-35 3.5000000000000004 1.3648548722267153 257.00000000000006 1.0000000180025095e-35 1.7621098160743716 138.00000000000003 3.7015461921691899 204.00000000000003 1.0000000180025095e-35 25.500000000000004 3.1373351812362675 24.500000000000004 2.9561595916748051 2.0028654336929326 2.5000000000000004 5.5000000000000009 30.500000000000004 1.5000000000000002 12.500000000000002 1.5000000000000002 3.511784672737122 0.016064516129032261 72.500000000000014 1.8466759920120241 2.5000000000000004 1.5000000000000002 0.31296641791044782 1.0000000180025095e-35 1.5000000000000002 0.4990494296577947 20.500000000000004 4.5000000000000009 1.9570437669754031 16.500000000000004 1.3327466845512392 0.015504807692307694 3.5000000000000004 2.5000000000000004 0.0011334656619966213 1.9845809792843694 0.3291402012109757 1.0000000180025095e-35 1.5000000000000002 1.5000000000000002 1.3350340136054424
decision_type=2 2 2 2 2 2 2 2 2 2 2 2 2 2 2 2 2 2 2 2 2 2 2 2 2 2 2 2 2 2 2 2 2 2 2 2 2 2 2 2 2 2 2 2 2 2 2 2 2 2 2 2 2 2 2 2 2 2 2 2 2 2
left_child=2 3 17 30 5 6 12 25 19 10 16 -8 13 -3 -12 49 -10 18 56 22 -13 51 26 -24 35 -7 -6 61 55 -30 -2 -32 -27 46 -29 -9 37 -19 44 -40 -38 42 -42 -14 -33 -35 47 -20 -43 -4 -26 -5 59 -54 -55 -11 -1 -58 -59 60 -17 -21
right_child=1 4 15 21 8 7 11 24 9 28 14 20 43 -15 -16 52 -18 36 33 27 -22 -23 23 -25 50 32 -28 34 29 -31 31 38 -34 45 -36 -37 40 -39 39 -41 41 48 -44 -45 -46 -47 -48 -49 -50 -51 -52 -53 53 54 -56 -57 57 58 -60 -61 -62 -63
leaf_value=-0.044655453280761925 -0.053876084808165907 0.17725402015380168 -0.053156682559409307 -0.050714287832997973 0.21123702584586215 0.25788678535199688 -0.056107001589109251 0.2082525428269468 0.14513597144337792 0.15360021636253601 0.11257458184583918 0.15934246401030328 0.18718241455016127 0.038415862203703105 0.18996569997486062 0.1587980146179985 0.023407857983543699 -0.047409921127427611 0.18588752379572651 0.023860784487502971 -0.026034139349343607 0.2236259010564938 0.089951315364692572 0.20552340607379824 0.089002345374221317 0.070100125932510984 0.20003320818140088 0.04888510839465865 0.13012974918579973 0.19105786325839991 0.2049023329653486 -0.052471757514148669 -0.03684655146647299 0.11811408019535236 0.18531283939574422 0.086133677202014841 -0.053388668915906351 0.20354810056880518 0.20015233856978956 -0.046403275685729661 -0.029701392961444192 0.058328291356040785 0.11791116143032945 0.21534612552542873 0.094000757098702092 -0.05040152484331191 0.19926441159148967 -0.021852121329347204 -0.048724754933253595 0.078212034436689809 -0.051852888272930803 0.08204694099398957 0.20684611166597736 -0.05035215335730639 0.11913232937883947 0.20734665463781493 -0.04976248602669358 0.15555331747071569 -0.044531686244130432 0.21273707477051684 0.22543564881764466 -0.053932480692370638
leaf_weight=137.86773248761892 1071.4759380966425 790.68731035292149 31.872367635369301 13.834863081574442 12514.794042173773 5.6170337796211234 158.91536654531956 93.723065890371799 182.26900210976601 34.686609297990799 503.38470483571291 139.50842442363501 303.51197535544634 172.01924745365977 1255.742976706475 63.95873212069273 290.0059505328536 7.5262076295912248 8.4594005420804042 6.0229712128639248 47.678233034908772 252.80529813095927 482.18479745835066 3369.1932860948145 6.4030896238982704 27.49322273209691 6110.4903381131589 30.442632406949997 169.93330619484186 1194.8290664814413 11.686698235571383 117.00461807847023 430.06328907236457 7.8878206461668041 28.361005194485188 23.724479727447033 7127.3181228153408 6.8871898651123047 14.916836645454167 34.321360155940056 93.113032117486 10.759472627192734 54.057144969701767 1899.8274121880531 5.989957556128501 9.3975058719515783 56.961061127483845 8.1783069372177106 1602.9814883098006 6.9320153295993796 12.757132016122339 6.7678044922649852 35.17372589558363 8.7034389302134496 5.0935638397932044 2111.8149819113314 12.297952324151995 5.3120803609490377 4.8803377747535706 415.85856544971466 22.220757484436035 19.52040970697999
leaf_count=2669 21574 2852 570 257 12390 8 2350 211 759 104 2588 636 719 1605 2939 202 2442 147 10 76 557 328 3210 4563 73 286 9269 263 646 2283 22 2035 6780 47 92 160 143707 4 51 592 1606 161 691 1958 37 151 155 124 31880 62 201 74 42 123 37 2819 245 58 90 268 13 269
internal_value=0.13572 0.184541 -0.0343584 -0.00164526 0.193322 0.154417 0.178037 0.0160326 0.198968 0.178152 0.14735 0.0349733 0.193659 0.152517 0.167899 0.187604 0.0706054 -0.0486796 0.0296548 0.204258 0.112211 0.206417 0.204756 0.191082 0.158468 -0.0262173 0.207573 0.0708157 0.197678 0.183576 -0.0470906 -0.00745486 -0.0302707 0.148373 0.116766 0.184562 -0.0508939 0.0776075 -0.0229927 0.0306891 -0.0511116 -0.0418671 0.0249144 0.211555 -0.0445975 0.0284778 0.175705 0.0880397 -0.0479722 -0.028188 -0.00245308 -0.00509265 0.202834 0.154485 0.0157026 0.206552 -0.0381012 0.00205465 0.0638829 0.207224 0.178426 -0.0351931
internal_weight=43688.1 33944.4 9743.7 1528.8 32415.6 4111.93 3512.15 599.781 28303.7 5742.67 2231.4 346.102 3166.05 962.707 1759.13 589.813 472.275 9153.88 251.242 22561 187.187 273.408 22476.7 3851.38 136.608 463.174 18625.3 84.347 3511.26 1364.76 1255.4 183.919 457.557 90.8841 58.8036 117.448 8902.64 14.4134 172.233 49.2382 8888.23 1760.91 147.17 2203.34 122.995 17.2853 73.5988 16.6377 1613.74 38.8044 19.1602 20.6027 551.009 48.9707 13.797 2146.5 160.358 22.4904 10.1924 502.038 86.1795 25.5434
internal_count=271140 88078 183062 24970 63108 18396 10677 7719 44712 14580 8728 3543 7134 4457 5527 1317 3201 181745 3549 30132 1193 659 29432 7773 645 7074 21659 700 5852 2929 24311 2737 7066 487 355 371 178196 151 2715 643 178045 34338 2297 2677 2072 198 289 134 32041 632 274 331 685 202 160 2923 3062 393 148 483 215 345
is_linear=0
shrinkage=0.05


Tree=4
num_leaves=63
num_cat=0
split_feature=33 41 30 41 40 40 40 7 40 38 24 7 24 38 40 41 40 17 7 40 39 4 34 24 5 38 40 40 40 7 33 16 19 40 40 40 37 39 40 4 40 26 17 38 24 29 41 41 6 4 41 40 17 7 40 41 37 19 26 24 37 40
split_gain=111797 19008.9 10666.5 2402.82 2294.07 2247.02 1074.7 1003.86 2063.16 2065.6 928.406 693.107 683.788 606.566 679.395 539.982 412.741 318.776 298.99 236.821 384.119 221.099 187.539 166.042 153.266 139.862 138.92 130.095 117.159 116.576 98.0981 94.3344 90.7513 200.875 82.6538 75.5405 274.396 300.186 66.8544 65.5258 53.6379 137.846 134.804 49.5227 37.1834 24.913 23.4238 21.8279 30.1602 40.2246 20.6505 31.0299 19.9433 47.9059 17.1097 161.463 73.3006 10.5149 8.9051 7.06564 6.58253 27.2024
threshold=1.0000000180025095e-35 -3.6143884658813472 1.0000000180025095e-35 -1.163685083389282 3.2333745956420903 1.7621098160743716 0.23769606649875644 1.5000000000000002 1.9344824552536013 13.500000000000002 25.500000000000004 1.5000000000000002 25.500000000000004 3.5000000000000004 1.3648548722267153 -0.69904497265815724 8.6552987098693865 0.014981483559645384 1.0000000180025095e-35 4.8197805881500253 238.50000000000003 0.24916107382550337 257.00000000000006 7.5000000000000009 10.500000000000002 6.5000000000000009 4.1996705532073983 1.1054224967956545 6.5129415988922128 2.5000000000000004 67.000000000000014 1.5000000000000002 2.5000000000000004 2.3126741647720341 3.511784672737122 1.8466759920120241 2.5000000000000004 2.5000000000000004 1.9570437669754031 0.4990494296577947 1.9799548387527468 719.51978888888902 0.016194597429845272 4.5000000000000009 26.500000000000004 2.7192057761732857 -1.789067208766937 0.37261623144149786 1.5000000000000002 0.31643132220795894 -6.8353188037872306 5.5762221813201913 0.032644217107132716 1.5000000000000002 0.3291402012109757 -0.89698451757431019 12.500000000000002 7.5000000000000009 682.65925000000016 33.500000000000007 1.0000000180025095e-35 1.4943212270736697
decision_type=2 2 2 2 2 2 2 2 2 2 2 2 2 2 2 2 2 2 2 2 2 2 2 2 2 2 2 2 2 2 2 2 2 2 2 2 2 2 2 2 2 2 2 2 2 2 2 2 2 2 2 2 2 2 2 2 2 2 2 2 2 2
left_child=2 4 13 5 40 11 39 8 9 -8 -10 18 19 14 54 38 24 -6 -3 20 -7 27 29 50 -14 -20 -24 -13 30 -9 -25 34 -16 -34 -15 60 37 -37 -4 -5 52 42 -42 -38 -30 -43 -23 48 49 -17 51 -19 -2 -54 -1 56 -56 -35 -57 -49 61 -33
right_child=1 3 15 6 17 12 7 22 10 -11 -12 21 16 31 32 47 -18 23 25 -21 -22 46 26 28 -26 -27 -28 -29 44 -31 -32 35 33 57 -36 36 43 -39 -40 -41 41 45 -44 -45 -46 -47 -48 59 -50 -51 -52 -53 53 -55 55 58 -58 -59 -60 -61 -62 -63
leaf_value=-0.053323581835839046 -0.053631204650556874 0.20513656147693882 -0.0528314302763093 -0.054641369265653154 -0.05252895985683681 0.15555725416312352 0.14791253900275278 0.17209631628554267 0.17627729543676141 0.034044683365052265 0.14685548195645348 -0.023572977007875265 0.065504200459522988 -0.046983082970576025 0.18536609182811156 0.020321952659478025 0.181633556712992 0.048369087914382394 0.06268986761167139 0.18045762659563941 0.070370930295865095 0.10749642384553307 -0.056567596167535261 0.094888935592183712 -0.026616111392317156 -0.03944642423891434 0.12628923670185882 0.090217112660107179 0.15617962312738304 0.18069993096975306 -0.031669401446349908 -0.049149354834262839 -0.041062243077398287 0.18730559368590516 0.17636513129260334 0.27492054113595216 0.053206771508762865 0.0033346626820660781 0.093723159308286494 0.12430665230277645 -0.03308351622830822 0.075246124346663418 0.18405485033184588 -0.048295062054944188 0.064709235567584025 -0.049323008850719184 0.17007388953709457 0.18173478703145593 0.17045548951557551 0.14585191305936651 0.17942112156758472 0.16388337565011935 -0.05050615987687615 0.11420273536370165 0.29087323237459622 -0.053338129060816253 0.027724490504103194 0.11501530445889063 0.031592695694653117 0.15882724913911289 -0.053458238957009629 0.012276753744141077
leaf_weight=80.805212080478668 1025.4925742037594 13.451696038246153 30.263487294316292 56.566839434206486 26.486031014472246 722.45721769705415 1171.6674969010055 6815.7619929760695 8532.958931773901 604.41771770641208 3981.5707401409745 39.143424760550261 163.50270941108465 7.2314146086573583 42.023199398070574 12.131909403949978 66.464741282165051 11.246888883411886 37.085106424987316 644.69253353774548 165.29605697840452 29.395516704767942 12.969755828380583 30.631944332271814 61.505613680928946 281.71001944318414 42.352247394621372 67.136368859559298 45.651473511010408 12310.677688781172 28.863989923149347 224.88857169821858 19.856586936861277 17.447041369974613 7.6823573112487793 9.9758593216538411 11.287269044667481 140.32553600147367 9.3691827580332738 4.6568756252527228 13.264054559171202 3.2852030806243411 13.796084370464085 1538.0374633334577 17.645808048546314 101.09520710632205 69.549766305834055 427.9464396648109 31.460975773632526 13.683992922306059 102.25769051536918 14.817737542092798 14.003229230642321 5.2540279999375334 4.3294887579977495 61.773527771234512 5.8188986629247665 19.460569012910128 2.5421574264764777 123.60807873681188 6567.0120241045952 19.060897756367922
leaf_count=1667 21655 15 565 983 494 1869 4120 8779 10443 5830 9994 576 1023 147 60 99 83 91 333 673 1035 168 134 194 608 4109 138 464 122 10963 307 4714 316 21 4 53 161 2244 65 11 222 38 43 31880 107 1845 139 349 27 23 132 25 270 43 36 1221 97 90 41 189 138628 365
internal_value=0.120027 0.158863 -0.0338196 0.166042 -0.018368 0.11718 0.169479 0.169861 0.159764 0.109206 0.166929 0.0272569 0.143646 -0.0482792 0.0277504 0.161714 0.0730523 0.110662 -0.0173738 0.157013 0.139799 0.0992694 0.177375 0.128035 0.0402948 -0.0273905 0.0830881 0.0484319 0.0852495 0.177643 0.0338989 -0.0505484 0.129597 0.0857295 0.0716064 -0.0507715 -0.0412615 0.0230914 -0.0166089 -0.0391707 -0.0488939 -0.0185503 0.0800561 -0.0475185 0.132161 -0.0446781 0.152794 0.173339 0.136447 0.0900046 0.167962 0.117853 -0.0526852 -0.00190195 -0.0374303 -0.0196393 0.156458 0.15336 -0.0494723 0.176907 -0.0531375 -0.0442989
internal_weight=46776.8 37348.8 9428.02 35895 1453.79 2361.39 33533.6 33472.4 14290.6 1776.09 12514.5 537.472 1823.92 8779.56 254.057 648.464 291.473 277.602 332.247 1532.45 887.753 205.225 19181.8 251.116 225.008 318.795 55.322 106.28 122.793 19126.4 59.4959 8525.5 98.7874 56.7642 14.9138 8510.59 1699.63 150.301 39.6327 61.2237 1176.19 131.441 27.0601 1549.32 63.2973 104.38 98.9453 608.831 57.2769 25.8159 128.322 26.0646 1044.75 19.2573 155.269 74.4641 10.1484 36.9076 64.3157 551.555 6810.96 243.949
internal_count=271140 88078 183062 62490 25588 11095 51395 50401 30387 9950 20437 5804 5291 181745 3549 1317 1714 1472 4457 3577 2904 1347 20014 978 1631 4442 272 1040 730 19742 501 178196 487 427 151 178045 34338 2297 630 994 24116 2148 265 32041 229 1883 307 687 149 122 248 116 21968 313 3062 1395 133 111 1262 538 143707 5079
is_linear=0
shrinkage=0.05


Tree=5
num_leaves=63
num_cat=0
split_feature=33 41 30 41 40 40 36 40 7 23 24 40 18 36 40 20 40 33 4 17 7 24 17 40 19 4 33 33 40 37 24 27 24 40 24 40 36 37 23 24 33 7 38 26 40 7 36 41 40 7 4 24 25 7 37 7 18 7 23 40 40 13
split_gain=89509.3 14807.5 9372.55 2125.99 2264.48 1336.16 930.461 2240.18 2157.26 1181.69 774.472 1090.3 655.272 579.467 579.778 457.337 253.488 430.152 174.704 166.823 157.846 151.108 147.762 130.548 288.897 560.511 181.348 97.0182 96.2239 311.517 209.395 137.907 83.1398 82.907 159.398 82.171 76.8324 73.6716 73.6484 69.2977 68.4798 265.617 61.6426 57.9531 49.5187 43.9723 43.2783 41.9699 36.3632 30.3604 29.9744 53.6025 27.2346 25.2823 116.731 39.6918 23.8699 19.5671 74.0447 107.292 23.1285 19.395
threshold=1.0000000180025095e-35 -4.399120330810546 1.0000000180025095e-35 -1.4503690004348753 1.5423640608787539 3.7015461921691899 11.500000000000002 2.0028654336929326 2.5000000000000004 11.500000000000002 21.500000000000004 4.1996705532073983 0.012861869313482219 3.5000000000000004 1.3648548722267153 1.0000000180025095e-35 3.0889837741851811 18.500000000000004 0.013522656621438761 0.014742103738046944 2.5000000000000004 7.5000000000000009 0.014981483559645384 1.1595149636268618 1.5000000000000002 0.31296641791044782 1.5000000000000002 1.5000000000000002 2.491928339004517 2.5000000000000004 12.500000000000002 4.6961538461538472 7.5000000000000009 1.9799548387527468 2.5000000000000004 6.5129415988922128 4.5000000000000009 30.500000000000004 3.5000000000000004 4.5000000000000009 1.5000000000000002 1.5000000000000002 9.5000000000000018 386.05568584070801 6.1252911090850839 3.5000000000000004 1.5000000000000002 -6.4915566444396964 1.9570437669754031 1.5000000000000002 0.4990494296577947 20.500000000000004 2.7834821428571432 11.500000000000002 1.0000000180025095e-35 15.500000000000002 0.034217304765249978 1.5000000000000002 58.500000000000007 3.7015461921691899 1.5601004362106325 5.5000000000000009
decision_type=2 2 2 2 2 2 2 2 2 2 2 2 2 2 2 2 2 2 2 2 2 2 2 2 2 2 2 2 2 2 2 2 2 2 2 2 2 2 2 2 2 2 2 2 2 2 2 2 2 2 2 2 2 2 2 2 2 2 2 2 2 2
left_child=2 5 13 4 20 33 23 8 9 -8 21 -12 19 14 -1 48 17 -14 -10 52 38 -9 -7 24 26 -26 -5 -21 53 30 -30 -32 -24 -2 -35 47 -31 50 -3 -22 41 -25 -41 -36 -18 -38 -39 -34 -4 -40 51 -16 -6 -15 55 -55 -45 58 60 -60 -17 -37
right_child=1 3 15 6 12 22 7 10 18 -11 11 -13 16 28 37 57 44 -19 -20 27 39 -23 32 40 25 -27 -28 -29 29 36 31 -33 35 34 43 61 45 46 49 42 -42 -43 -44 56 -46 -47 -48 -49 -50 -51 -52 -53 -54 54 -56 -57 -58 -59 59 -61 -62 -63
leaf_value=-0.03675661737539411 -0.053156372463275918 0.12027574237131713 -0.052550632374910748 0.15684033215241575 -0.054871629859500518 -0.050702676910400368 0.1223017110158837 0.16323637519313772 0.031814551748703339 0.0041108014924745853 0.10271277251409874 0.14708041052717633 0.12047973480339946 -0.052390269477898946 0.14323086583726341 0.10597204855807203 0.13419218524992679 -0.026604115413075575 0.15178859707753509 -0.0071791215460469907 0.15690006652758326 0.1499063623840203 0.14669098430769212 0.13612790698369467 0.0024207712277533725 0.14477113547017748 0.045902134968560243 0.079970842749722201 0.20880523883924917 0.109506945892134 0.10819518221535029 -0.030277137346452977 -0.040912347364671177 0.14344200475353194 0.096296262805199831 0.13720443748687525 -0.049378309844927193 0.096062053149293281 -0.047991716709794768 0.12229274284330259 0.16031212872563949 0.15859784730852819 -0.029897400797307488 -0.043025034645023157 0.15977165910730795 -0.0032859684648835971 -0.050448751335052056 0.066372892078254198 0.062968820065998757 -0.0062424844654715601 0.1503234014849677 -0.022375042899983044 0.049949003860056712 0.23070840298534803 -0.05223820432385598 0.012110276002590313 0.084436776471927238 0.15802907910147626 -0.057789045777877412 0.13382045470433399 0.16427333518505333 0.070162818613243833
leaf_weight=150.28511961176991 959.86427382007241 6.3777650967240325 29.296492349356413 1081.0845158658922 38.165750689804554 15.033116359263657 299.15580955147743 3931.625503577292 32.259416662156582 716.4365347251296 2055.8641905859113 4327.7099946811795 426.66830600053072 7195.2753520570695 10.110075280070307 31.733039613813162 396.74927647784352 55.817703608423471 810.75128110125661 37.784564178436995 13.270261619240044 5373.4757847040892 81.176068898290396 1755.4985762648284 103.23363665863872 209.12196146324277 39.309781450778246 196.47696830704808 16.136640753597021 7.0601838529109946 25.888529721647501 53.315237686038017 16.977987769991156 13.86473239213228 7.5274357087910166 33.37324770912528 763.82482903823256 8.9475076943635958 231.65416389331222 8.9152309820055979 9946.9924562498927 6122.6060363724828 19.308943513780832 111.22605600953102 518.64320394769311 55.908242423087358 9.2691052667796594 17.510485414415601 7.8441983982920638 54.324912868440151 68.548637926578522 8.2185666374862176 6.5018620118498793 4.5309133045375329 37.885322358459234 3.5921403393149376 2.8714677840471259 509.27934710681438 11.457392394542696 17.092237748205662 89.1669991761446 22.036596566438675
leaf_count=3062 21183 40 570 1718 589 295 1514 3131 267 7390 6182 6590 1448 158266 10 103 963 608 1155 321 63 6987 149 3871 922 441 270 1012 46 78 316 905 197 26 52 97 16510 47 3802 40 8510 4500 256 2053 447 1140 151 117 62 700 155 124 57 34 835 66 15 342 111 37 92 100
internal_value=0.108124 0.140273 -0.0333074 0.145794 0.0956317 -0.0269304 0.148532 0.140157 0.0881621 0.0390164 0.146311 0.132811 0.119297 -0.0478895 0.0261785 0.142919 0.133262 0.103434 0.147247 0.0490645 -0.0232165 0.155556 0.0965868 0.156154 0.141065 0.0978981 0.152997 0.0659222 -0.0502102 -0.0349052 0.0502688 0.0157062 0.109778 -0.0479903 -0.0112334 0.0751449 -0.0447818 0.115721 -0.0362135 0.0669354 0.157359 0.153609 0.0205438 -0.0299325 0.148849 -0.0462486 0.0225073 0.013753 -0.0270103 -0.0401278 0.134731 0.0713987 -0.0387447 -0.0521534 -0.014671 0.146512 -0.039068 0.152534 0.132849 0.0574021 0.150007 0.112347
internal_weight=49211.9 40097.2 9114.67 38815.8 2010.66 1281.46 36805.1 17547.3 1858.6 1015.59 15688.7 6383.57 1676.81 8418.8 255.379 695.87 1397.88 482.486 843.011 278.929 333.851 9305.1 186.108 19257.8 1432.75 312.356 1120.39 234.262 8163.42 922.134 95.3404 79.2038 171.074 1095.35 135.49 89.8983 826.793 105.094 292.357 41.4944 17825.1 7878.1 28.2242 121.625 915.392 819.733 18.2166 34.4885 37.1407 285.979 86.8773 18.3286 44.6676 7241.28 46.0084 8.12305 114.098 658.729 149.45 28.5496 120.9 55.4098
internal_count=271140 88078 183062 63794 10346 24284 53448 33216 10326 8904 22890 12772 5445 181745 3549 1317 3466 2056 1422 1979 4901 10118 955 20232 3351 1363 1988 1333 178196 18995 1267 1221 660 23329 2146 511 17728 487 4542 359 16881 8371 296 2120 1410 17650 198 314 632 4502 289 134 646 159201 935 100 2068 685 343 148 195 197
is_linear=0
shrinkage=0.05


Tree=6
num_leaves=63
num_cat=0
split_feature=33 41 30 41 40 40 6 12 7 36 40 24 36 40 40 4 20 7 1 1 24 34 40 17 40 33 7 7 40 37 39 24 40 24 39 24 39 24 40 37 26 40 25 35 13 12 40 7 24 41 3 36 22 7 37 7 9 24 40 34 40 40
split_gain=73687.4 11938.6 8357.76 1680.93 1563.64 1208.96 821.03 1484.9 1889.05 977.383 1846.72 608.167 553.866 500.69 495.6 494.276 370.067 227.757 224.875 189.791 182.853 143.734 207.431 124.352 119.07 416.867 114.747 98.4063 97.3642 289.312 226.574 106.562 81.9948 138.615 75.1342 130.163 66.9778 65.7743 67.2405 58.5312 52.1676 45.3405 40.8135 37.5178 33.93 44.7156 33.1665 32.7019 30.9627 29.4306 26.2843 94.1321 47.8302 25.284 101.662 28.0805 24.676 24.6194 75.575 21.6874 19.8194 18.845
threshold=1.0000000180025095e-35 -4.399120330810546 1.0000000180025095e-35 -1.1358616352081297 1.5423640608787539 3.7015461921691899 1.5000000000000002 1.5000000000000002 1.0000000180025095e-35 8.5000000000000018 2.1767054796218877 15.500000000000002 3.5000000000000004 1.3648548722267153 5.5762221813201913 0.25245098039215691 1.0000000180025095e-35 1.0000000180025095e-35 1.0000000180025095e-35 1.0000000180025095e-35 2.5000000000000004 193.00000000000003 8.6552987098693865 0.014981483559645384 3.0889837741851811 23.500000000000004 1.5000000000000002 1.0000000180025095e-35 2.491928339004517 2.5000000000000004 10.500000000000002 19.500000000000004 1.9799548387527468 2.5000000000000004 2.5000000000000004 49.500000000000007 130.00000000000003 7.5000000000000009 6.5129415988922128 30.500000000000004 386.05568584070801 8.6552987098693865 1.5396389324960758 60.500000000000007 6.5000000000000009 13.500000000000002 0.56294542551040661 3.5000000000000004 7.5000000000000009 -1.6076942086219785 1.0000000180025095e-35 5.5000000000000009 18.500000000000004 11.500000000000002 1.0000000180025095e-35 15.500000000000002 21.500000000000004 51.500000000000007 3.5729601383209233 257.00000000000006 1.4615998268127444 2.1013355255126958
decision_type=2 2 2 2 2 2 2 2 2 2 2 2 2 2 2 2 2 2 2 2 2 2 2 2 2 2 2 2 2 2 2 2 2 2 2 2 2 2 2 2 2 2 2 2 2 2 2 2 2 2 2 2 2 2 2 2 2 2 2 2 2 2
left_child=2 5 12 4 15 32 7 8 -5 19 -11 24 13 -1 17 20 44 -13 49 -9 46 26 -23 -7 25 -6 61 -22 53 30 31 -30 -2 -34 35 -31 -28 -25 43 57 -35 -16 -41 -39 -4 -46 -3 -36 -26 -17 -18 -52 -53 -14 55 -55 -32 -15 -59 -42 -20 -8
right_child=1 3 16 6 11 23 21 9 -10 10 -12 14 28 39 41 18 50 -19 60 -21 27 22 -24 37 48 -27 36 -29 29 34 56 -33 33 40 47 -37 -38 38 -40 42 59 -43 -44 -45 45 -47 -48 -49 -50 -51 51 52 -54 54 -56 -57 -58 58 -60 -61 -62 -63
leaf_value=-0.036063949031627268 -0.052934786933378275 0.025562003552089159 -0.052979219543784484 0.15655089143558007 0.11984751406303847 -0.050348931160224111 0.17905002519617519 0.14444696755795974 -0.058419649277807684 0.070536084450701267 0.12741519165791748 0.16072759693332228 -0.052135942736355356 0.13577945369919162 0.098128141075387018 0.075007375488844466 0.14008620670883987 0.028431013420292951 -0.05299497722981053 0.12920526013136796 0.15519795242581727 -0.011484507396762629 0.14050102151677663 0.13095152908530833 0.14521254951898155 -0.045203572278346225 0.14272103441940839 -0.032838786402097114 0.21270818868869046 0.2878590224922154 -0.053376471792667718 0.062282056879289109 0.12835231355240459 0.086943603037346329 -0.049018655341215037 -0.027144681969264225 0.12525773616564331 0.081277443304246424 0.10106337526008619 0.091338325760004377 -0.046332246135021043 0.14351410890916846 -0.05045395649995521 -0.024518033967640615 0.16426387496353534 -0.044676518773516319 0.15041049919307414 -0.0065888110841090244 0.12537997710497645 0.14531891333346056 0.13840979697961803 -0.053992165976922482 0.11624452712620328 0.19064533179938861 -0.051984690087857978 0.011542117103328026 0.041848061904488823 -0.029119847914479836 0.14907611570049764 0.021560139466409313 0.061918618164802923 0.15426331270163676
leaf_weight=145.65081160515547 916.78086382523179 8.5774914287030715 27.698802556842566 178.23505902290344 578.29048386961222 14.404735952615736 127.80626535415649 8118.9137675091624 236.84858363866806 1646.2381532117724 10949.728787027299 34.454057097434998 6876.9090105220675 69.729435563087463 104.63389668241143 23.338218752294779 634.73768228664994 410.44387633726001 21.950498808175329 2892.6659529805183 6.1263322234153739 37.319649044424295 54.598623365163803 86.359377771615982 626.32351287081838 40.414866518229246 11751.243037745357 323.62653765082359 17.552377380430698 3.6258670650422564 37.043704256415367 36.307056397199631 14.810895577073095 8.0144527591764909 732.07740175351501 10.688748668879269 653.13636805489659 11.939455159008501 58.582732729613781 9.175375662744047 97.709215726703405 156.90136731415987 9.1697944812476617 22.808109950274229 3.8368615731596929 4.6899703368544579 16.043379276990891 49.062331721186638 409.99258760362864 76.453173667192459 45.217757038772106 11.872394088655712 5.0721981450915328 5.3934436887502653 36.213706325739622 3.6287789046764374 7.4427419677376738 10.268159102648498 12.18310698866844 12.656555864959953 3.5768890641629687 1552.1888622045517
leaf_count=3062 21183 92 524 156 1570 295 90 6743 2263 9338 16681 30 158266 134 303 134 483 2998 376 4531 6 254 53 149 566 466 9240 5027 27 24 654 477 26 52 16476 219 993 74 197 51 1898 155 147 240 22 86 70 1009 703 93 42 139 21 34 835 66 109 142 13 170 24 839
internal_value=0.098763 0.126165 -0.0328224 0.13079 0.0936088 -0.0264079 0.133553 0.127892 0.0340301 0.129541 0.119988 0.110321 -0.0475074 0.0247427 0.0712971 0.0112693 0.128705 0.0390251 0.0962097 0.140456 -0.0189407 0.143136 0.0792802 0.0879257 0.126922 0.109002 0.143546 -0.0288716 -0.049879 -0.0342563 0.0462775 0.11438 -0.0476115 -0.010812 -0.0442649 0.065905 0.141812 0.0992554 0.0687965 0.104523 -0.0291944 0.125818 0.0212609 0.0129508 -0.0263293 0.0561901 0.109806 -0.0463719 0.1375 0.129832 0.136797 0.10145 0.00032608 -0.0518902 -0.0141067 0.127447 -0.0367654 0.120634 0.0695979 -0.0383779 -0.0349777 0.156257
internal_weight=51089.4 42284.1 8805.25 41040.1 2841.15 1244.07 38198.9 24022.6 415.084 23607.5 12596 2361.45 8072.12 256.177 706.433 479.693 733.126 444.898 125.319 11011.6 354.374 14176.3 91.9183 194.094 1655.02 618.705 14084.4 329.753 7815.95 893.8 98.3459 53.8594 1049.97 133.191 795.454 14.3146 12404.4 179.69 93.3303 110.526 118.38 261.535 18.3452 34.7476 36.2256 8.52683 24.6209 781.14 1036.32 99.7914 696.9 62.1623 16.9446 6922.14 45.2359 9.02222 44.4864 92.1807 22.4513 110.366 25.5274 1680
internal_count=271140 88078 183062 63794 12613 24284 51181 39712 2419 37293 26019 6791 181745 3549 3486 5822 1317 3028 627 11274 5195 11469 307 955 3305 2036 11162 5033 178196 18995 1267 504 23329 2146 17728 243 10233 660 511 487 2120 458 198 314 632 108 162 17485 1269 227 685 202 160 159201 935 100 763 289 155 2068 400 929
is_linear=0
shrinkage=0.05


Tree=7
num_leaves=63
num_cat=0
split_feature=31 41 30 41 40 40 7 7 40 38 24 36 40 24 20 40 40 39 34 39 1 40 36 40 7 41 40 37 39 24 19 40 24 23 39 23 40 19 40 40 39 40 33 32 40 19 23 7 40 21 40 13 20 41 7 37 9 40 2 0 36 41
split_gain=61908.3 9864.89 7532.88 1391.56 1463.8 1100.66 880.061 1761.78 1926.22 1770.25 838.252 529.621 437.664 383.077 307.203 242.538 209.785 356.179 157.466 142.456 121.361 477.367 164.107 114.075 110.12 108.317 98.3151 269.446 190.581 96.1949 89.9329 80.9708 121.882 71.874 70.1174 97.1367 68.0443 57.953 57.288 55.728 52.9923 50.583 48.2567 83.0041 48.2358 114.72 35.041 32.3163 32.267 31.0124 28.3489 28.0257 27.2558 26.9343 25.2194 89.7171 23.3332 21.293 27.3019 20.8592 78.159 45.3051
threshold=1.0000000180025095e-35 -4.399120330810546 1.0000000180025095e-35 -1.5810879468917844 1.5258467793464663 3.7015461921691899 1.5000000000000002 1.0000000180025095e-35 2.0756468772888188 24.500000000000004 25.500000000000004 3.5000000000000004 1.3648548722267153 25.500000000000004 1.0000000180025095e-35 8.6552987098693865 3.4477607011795048 12.500000000000002 257.00000000000006 11.500000000000002 1.0000000180025095e-35 1.1872266530990603 217.50000000000003 4.1996705532073983 1.5000000000000002 -10.270160198211668 2.491928339004517 2.5000000000000004 10.500000000000002 4.5000000000000009 1.5000000000000002 1.9799548387527468 2.5000000000000004 24.500000000000004 2.5000000000000004 130.50000000000003 1.9344824552536013 8.5000000000000018 0.88267210125923168 3.5729601383209233 2.5000000000000004 7.6827375888824472 1.5000000000000002 40.500000000000007 2.1013355255126958 2.5000000000000004 3.5000000000000004 3.5000000000000004 1.9570437669754031 5.5000000000000009 6.1252911090850839 1.0000000180025095e-35 1.0000000180025095e-35 -5.9499475955963126 11.500000000000002 1.0000000180025095e-35 21.500000000000004 5.3539316654205331 3.5000000000000004 0.015504807692307694 5.5000000000000009 1.9149924516677859
decision_type=2 2 2 2 2 2 2 2 2 2 2 2 2 2 2 2 2 2 2 2 2 2 2 2 2 2 2 2 2 2 2 2 2 2 2 2 2 2 2 2 2 2 2 2 2 2 2 2 2 2 2 2 2 2 2 2 2 2 2 2 2 2
left_child=2 5 11 4 24 31 7 36 9 -9 -10 12 -1 16 48 19 17 -6 20 -15 22 -22 -8 -20 46 49 54 28 30 38 -28 -2 -33 57 35 -29 -5 44 -26 -39 -31 53 43 -34 45 -14 -3 -36 -4 -7 -18 -25 -44 -35 -13 -56 -30 58 -27 -16 -61 -62
right_child=1 3 14 6 13 25 18 8 10 -11 -12 26 37 15 59 -17 50 -19 23 -21 21 -23 -24 51 29 33 27 34 56 40 -32 32 42 41 47 -37 -38 39 -40 -41 -42 -43 52 -45 -46 -47 -48 -49 -50 -51 -52 -53 -54 -55 55 -57 -58 -59 -60 60 61 -63
leaf_value=-0.035369560792814288 -0.05272256285351587 0.073369052672994289 -0.051995320351446994 0.15996179094113522 0.11531667915073068 0.084271632229371035 0.13120565060557263 0.083858869054750082 0.12184823986352658 -0.023851962165742729 0.091822703076375689 -0.051889146812745715 0.12578026789891955 0.058432280636737714 0.12742466969929778 0.12438415361479993 0.10993108665532636 0.036943540591075345 -0.058234975355577805 -0.029582065986385936 -0.036790716716983564 0.12252883018514607 0.11227822911866447 0.12432541036995946 0 0.10982486139845585 0.18801873566073668 0.22998674221824433 -0.053057947867318579 0.093146397259610297 0.054985452299579032 0.11633135635305335 -0.047464971942990757 -0.055402395785495787 -0.048644453055713889 -0.02652766742065777 0.13563032326162394 -0.052199657997903638 0.15832447729188109 0.11217319604097137 -0.032301750328706101 0.090326235047345313 -0.046199504982248576 0.19820042433439014 0.14044392068602238 -0.052986541076336692 -0.050007799895331086 -0.0063017301430904884 0.055576002438996713 -0.053032386605305598 0.13115046448321371 0.047604532005736402 0.05767545003239008 0.041105652925940699 0.11257190499540284 -0.051738754490650143 0.038788770427085402 0.12791043999695492 0.014952657508985841 0.12569931597471753 -0.053499072804503049 0.1115265118737761
leaf_weight=141.21787199750543 875.4946630448103 5.0452716611325732 26.995614804327488 343.74022960662842 353.23442411795259 4.3095714449882534 15912.958946466446 1721.3553823754191 6767.8450238853693 489.41367451101542 3574.275095500052 6571.8522575460374 24.971405893564224 80.943320214748383 662.2405952885747 59.686200357973576 326.23220777139068 248.02066562324762 17.206377789378166 103.73005573824048 46.935660637915134 5884.1041040197015 1292.0168472193182 25.58054169267416 8.70800679177046 20.627036031335592 19.135012272745371 4.5391465947031966 35.449117999523878 8.9987417645752412 38.485766232013702 15.605439551174639 7.1368966288864595 12.620419248938562 701.60345145687461 10.458082426339386 4766.6418104767799 11.632155403494837 15.413157097995279 7.7215447872877112 52.340504057705402 28.354542881250381 97.221122656017542 5.1040628738701344 57.572833381593227 12.966987758874891 197.16779072582722 48.785334073007107 8.3423747420310956 17.55233545973897 472.37895771116018 25.733181998133659 5.872995998710393 14.396496355533598 9.8385144434869272 34.611799519509077 7.7002216428518286 90.47228504344821 12.429384306073187 47.34190009534359 11.680721551179888 5.1883026361465445
leaf_count=3062 21183 32 570 295 739 11 11340 6661 8110 5911 9056 158266 46 522 483 70 693 1646 181 1010 518 6723 2110 41 116 56 37 25 654 44 467 26 137 150 16476 218 3234 170 58 13 758 97 1926 13 56 202 3487 1009 62 305 337 102 44 109 100 835 109 135 92 42 142 18
internal_value=0.091165 0.115026 -0.0323628 0.119002 0.0774519 -0.0259084 0.120964 0.112521 0.102423 0.0600119 0.111482 -0.0471348 0.023481 0.0956489 0.117555 0.0376525 0.105735 0.0831107 0.127385 0.0090751 0.12761 0.121261 0.129791 0.0505898 -0.0265087 0.0807118 -0.049555 -0.0336226 0.0428953 0.0208655 0.101703 -0.0472408 -0.0104291 0.0935019 -0.0437463 0.0603213 0.137299 0.0955574 0.103327 0.0154237 -0.0126188 0.0448767 -0.028476 0.0618241 0.111415 0.0647594 -0.046559 -0.0459103 -0.0256324 -0.0232451 0.122637 0.0875919 -0.0397368 -0.00416608 -0.0516346 -0.013584 -0.0360468 0.114723 0.0757857 0.124553 0.0933631 0.000377914
internal_weight=52507.2 44006.9 8500.33 42799.7 1931.9 1207.2 40867.8 17663.3 12552.9 2210.77 10342.1 7738.54 256.083 1644.23 761.79 244.36 1399.87 601.255 23204.5 184.673 23136 5931.04 17205 68.5201 287.673 200.762 7482.46 866.156 100.77 85.4604 57.6208 1006.44 130.941 178.9 765.386 14.9972 5110.38 114.865 24.1212 19.3537 61.3392 55.3715 115.335 12.241 95.5112 37.9384 202.213 750.389 35.338 21.8619 798.611 51.3137 103.094 27.0169 6616.3 44.4503 43.1493 123.529 33.0564 726.452 64.2109 16.869
internal_count=271140 88078 183062 63794 9512 24284 54282 33267 29738 12572 17166 181745 3549 5017 1317 1602 3415 2385 21015 1532 20691 7241 13450 324 4495 955 178196 18995 1267 976 504 23329 2146 639 17728 243 3529 487 174 183 802 356 2120 150 304 248 3519 17485 632 316 1030 143 1970 259 159201 935 763 283 148 685 202 160
is_linear=0
shrinkage=0.05


Tree=8
num_leaves=63
num_cat=0
split_feature=31 30 19 18 40 4 1 5 6 24 40 39 40 40 39 40 20 33 20 40 19 40 40 39 24 28 40 39 40 18 33 40 24 4 40 29 6 39 40 19 40 40 16 4 18 13 20 13 27 19 23 16 40 19 39 24 6 40 33 4 6 40
split_gain=52868 6843.85 6750.26 2941.36 1036.41 1631.26 1056.9 872.264 939.94 784.905 830.331 290.386 1281.11 372.794 268.648 450.438 260.244 255.791 221.978 241.561 214.198 157.724 137.959 324.515 177.667 140.9 130.363 121.731 114.977 138.553 194.735 111.295 297.579 107.11 104.052 81.598 74.5751 72.9091 197.659 65.8218 93.6136 56.5227 53.1432 51.3703 44.532 40.3053 36.5678 31.262 38.0556 26.7059 26.1254 22.4087 21.0247 197.157 18.0266 30.1166 42.9716 47.8888 16.9381 15.358 9.41807 8.27381
threshold=1.0000000180025095e-35 1.0000000180025095e-35 1.0000000180025095e-35 0.023032714412024761 1.0785940289497378 0.089917365198264085 1.0000000180025095e-35 3.5000000000000004 1.5000000000000002 12.500000000000002 6.5129415988922128 58.500000000000007 2.491928339004517 4.1040740013122567 1.5000000000000002 1.3648548722267153 1.0000000180025095e-35 1.5000000000000002 1.0000000180025095e-35 0.60155451297760021 1.5000000000000002 2.0028654336929326 2.0756468772888188 2.5000000000000004 7.5000000000000009 2.4580419580419588 0.56294542551040661 119.50000000000001 2.0028654336929326 0.016064516129032261 11.500000000000002 2.429800391197205 19.500000000000004 1.0000000180025095e-35 2.0028654336929326 4.2678571428571432 1.5000000000000002 130.00000000000003 6.1252911090850839 2.5000000000000004 3.0889837741851811 1.3327466845512392 47.500000000000007 0.14729990356798459 0.014440621415910753 3.5000000000000004 1.0000000180025095e-35 6.5000000000000009 10.431677018633541 4.5000000000000009 70.500000000000014 31.500000000000004 0.27777098119258886 1.0000000180025095e-35 12.500000000000002 15.500000000000002 2.5000000000000004 4.4230206012725839 1.5000000000000002 0.058914870295944471 7.5000000000000009 1.4615998268127444
decision_type=2 2 2 2 2 2 2 2 2 2 2 2 2 2 2 2 2 2 2 2 2 2 2 2 2 2 2 2 2 2 2 2 2 2 2 2 2 2 2 2 2 2 2 2 2 2 2 2 2 2 2 2 2 2 2 2 2 2 2 2 2 2
left_child=1 14 3 28 5 17 18 11 9 21 -11 31 27 -14 15 52 47 20 45 -20 26 -9 61 25 35 -24 -4 -13 60 46 -31 32 -6 -19 41 -25 -26 44 -39 -17 50 -5 43 -8 -10 -7 -30 -3 -49 -27 -41 -32 -1 -54 -18 -56 57 -57 -33 -35 -2 -16
right_child=2 16 4 34 7 6 42 8 37 10 -12 12 13 -15 22 39 54 33 19 -21 -22 -23 23 24 36 49 -28 -29 29 30 51 58 -34 59 -36 -37 -38 38 -40 40 -42 -43 -44 -45 -46 -47 -48 48 -50 -51 -52 -53 53 -55 55 56 -58 -59 -60 -61 -62 -63
leaf_value=-0.052785231448210262 -0.053162174445813941 -0.0525385343145095 -0.016656213178329656 -0.050501352347167044 0.11891436094553764 0.12050295506444415 0.1316905973404825 0.082869927045203545 0.1077919844986963 0.064940713515880807 0.11105388744691994 0.04633460520720363 0.07993091315338291 0.11804217339808665 -0.052584229274564812 0.15405419493293557 0.11760678387171064 0.14407571856109891 -0.06326916114129455 0.084692817844975052 -0.051181075560665507 0.11391796439603248 0.14036891957409917 0.1448915233935697 -0.046817430059178468 0.10196984451372369 0.093206659945790749 -0.026018670155976437 -0.051433449714265445 0.12803964843112689 0.068616243612984962 0.11779185673014347 0.095308108577882744 -0.053741674178275994 0.12539529985502537 -0.046512271699862523 -0.0096062698850718255 0.052906601126338104 0.11875556583954526 0.068341371719098806 0.13501688524199912 0.085040925798765155 -0.054454690233465164 -0.049207264745204891 0.12125978725791323 0.078529464998362775 0.055851418418630644 0.14567770754157522 -0.044142125906636409 -0.050584719358010954 -0.038454226017207632 -0.053661407934969443 0.22452382949676078 -0.047967333437813786 0.11770419701354469 -0.060344777418173491 0.11285155292089227 0.086592952122982542 0.12209213590483503 -0.013348566662977077 0.034313166335666487 -0.046866269376736248
leaf_weight=119.02337529882789 853.72977532446384 25.687436711043119 35.822218995541334 12.779057748615744 5784.6533818803728 1183.5455795638263 7.1998208798468095 498.14745854213834 843.37539249286056 3602.622443433851 1343.9129973873496 85.141478486359119 794.69259028881788 3576.6504113413393 5067.7190319932997 33.654931508004665 671.41481047868729 6.4264390468597403 30.205504115670919 251.04983637109399 53.974929869174957 2752.0775610208511 36.391594767570496 17.977922845631841 998.77791128307581 2.4641594700515297 104.53852269798517 177.76022297888994 101.11196389421821 34.82712796330452 3.3675856478512278 4305.5093598216772 1777.13426072523 214.33971060439944 347.22548540681601 7.2644509933888903 156.6884642355144 166.0632894448936 383.32776156067848 7.2514386996626881 21.174540534615517 16.522794559597969 109.22722632437944 6.7090120948851109 4036.954701628536 68.668034955859184 7.7586462572216979 4.2269410118460637 4.5666343420743942 16.291355218738317 17.692268237471581 29.588678389787674 6.5091206319630137 56.338942162692547 41.370789118111134 11.680074982345106 15.40335903316736 8.8510500565171224 11675.984473720193 27.682160627096891 2.3862738795578471 852.42484886944294
leaf_count=2959 21538 524 444 257 5405 1517 32 1909 1295 11902 1879 555 2189 3290 128049 23 502 6 282 616 807 3319 84 58 23815 16 641 1969 2036 65 31 3072 3565 3892 299 173 3379 642 353 69 19 103 1528 93 3171 256 37 18 90 362 339 568 76 1344 49 102 15 17 8163 316 36 20980
internal_value=0.0848891 -0.0319267 0.106031 -0.0016771 0.109489 0.0751276 0.097902 0.111212 0.100792 0.0900714 0.07749 0.116248 0.104689 0.111135 -0.0467724 0.00296184 0.10855 -0.0100966 0.109217 0.0686168 0.0327636 0.109188 -0.0485917 -0.033334 -0.0388941 0.0841927 0.0652131 -0.00248112 -0.0453005 -0.00848413 0.0471851 0.118518 0.113381 -0.0436388 0.117767 0.0899439 -0.0417884 0.116956 0.0989929 0.101306 0.0602538 0.0260477 -0.0427103 0.0466502 0.118956 0.11827 -0.0433036 -0.0249822 0.0521491 -0.0261415 -0.0057772 -0.0393666 -0.0404649 -0.0165928 0.114732 0.0885154 0.0524984 0.00384816 0.120941 -0.0492161 -0.0528728 -0.0517698
internal_weight=53513.5 8200.85 45312.7 1409.3 43903.4 2099.39 1656.61 41804 13626.5 8196.76 4946.54 28177.5 4634.24 4371.34 7417.64 261.645 783.201 442.784 1533.47 281.255 194.336 3250.23 7156 1235.86 1180.71 55.1471 140.361 262.902 1032.77 176.654 67.7834 23543.3 7561.79 248.448 376.527 25.2424 1155.47 5429.72 549.391 79.7732 46.1182 29.3019 123.136 13.9088 4880.33 1252.21 108.871 34.481 8.79358 18.7555 24.9437 32.9563 181.871 62.8481 748.72 77.3053 35.9345 20.5311 15981.5 242.022 856.116 5920.14
internal_count=271140 183062 88078 24970 63108 10430 4324 52678 24470 19009 13781 28208 8003 5479 181745 4829 1317 6106 2671 898 1892 5228 176916 27887 27425 462 1085 2524 24311 2737 664 20205 8970 4214 659 231 27194 5461 995 450 427 360 1653 125 4466 1773 2073 632 108 378 408 599 4379 1420 685 183 134 119 11235 4208 21574 149029
is_linear=0
shrinkage=0.05


Tree=9
num_leaves=63
num_cat=0
split_feature=31 41 30 7 40 38 7 5 40 33 23 36 12 7 40 41 20 36 5 23 33 3 30 40 24 39 36 40 33 21 17 40 40 26 17 6 23 40 24 5 24 25 40 19 40 40 41 40 19 21 13 26 35 7 40 7 36 24 40 30 40 41
split_gain=45705.5 7148.41 6255.1 1166.84 2201.29 1347.44 1087.57 1024.12 907.79 816.737 575.063 486.994 466.109 392.918 344.651 330.355 223.575 208.452 150.675 136.933 128.394 184.851 150.371 100.66 201.462 94.8063 93.0706 568.31 97.574 88.8333 80.5763 77.8946 76.8779 109.573 96.3314 74.6173 63.3221 62.3476 75.3359 49.633 48.9156 46.2002 46.0663 45.4323 45.3035 45.1315 183.19 30.8773 92.529 30.287 29.2106 40.902 28.0052 25.5819 62.4562 21.5144 41.6687 37.4262 46.8615 21.1453 19.1725 142.966
threshold=1.0000000180025095e-35 -4.399120330810546 1.0000000180025095e-35 1.5000000000000002 1.6870614290237429 17.500000000000004 1.0000000180025095e-35 6.5000000000000009 3.7015461921691899 2.5000000000000004 25.500000000000004 3.5000000000000004 1.5000000000000002 1.0000000180025095e-35 1.3648548722267153 -1.5037803649902342 1.0000000180025095e-35 5.5000000000000009 9.5000000000000018 12.500000000000002 1.5000000000000002 1.0000000180025095e-35 1.0000000180025095e-35 2.491928339004517 9.5000000000000018 2.5000000000000004 226.50000000000003 2.491928339004517 11.500000000000002 27.500000000000004 0.014981483559645384 4.976799964904786 1.9799548387527468 1093.3368846153849 0.016194597429845272 1.5000000000000002 21.500000000000004 1.6313579678535464 4.5000000000000009 93.500000000000014 7.5000000000000009 1.7448894451397583 7.6827375888824472 8.5000000000000018 3.5729601383209233 1.2152689695358279 -1.6076942086219785 2.1013355255126958 2.5000000000000004 1.5000000000000002 6.5000000000000009 1357.9143181818183 60.500000000000007 11.500000000000002 1.9128507375717165 1.5000000000000002 9.5000000000000018 9.5000000000000018 2.3689326047897343 1.0000000180025095e-35 0.3291402012109757 -0.89698451757431019
decision_type=2 2 2 2 2 2 2 2 2 2 2 2 2 2 2 2 2 2 2 2 2 2 2 2 2 2 2 2 2 2 2 2 2 2 2 2 2 2 2 2 2 2 2 2 2 2 2 2 2 2 2 2 2 2 2 2 2 2 2 2 2 2
left_child=2 8 11 4 5 10 -6 12 32 -9 15 14 -8 -7 60 -3 50 -12 26 -15 21 22 -20 53 41 31 45 36 -29 -23 -10 -26 -2 34 -34 -27 -28 38 -22 -39 -32 49 52 47 -45 46 -5 48 -16 -25 -4 -52 -42 -13 -55 56 -18 -58 -59 -47 -1 -62
right_child=1 3 16 18 6 13 7 9 30 -11 17 23 -14 19 43 -17 55 -19 20 -21 37 29 -24 24 25 35 27 28 -30 -31 40 -33 33 -35 -36 -37 -38 39 -40 -41 42 -43 -44 44 -46 59 -48 -49 -50 -51 51 -53 -54 54 -56 -57 57 58 -60 -61 61 -63
leaf_value=-0.052416062057387539 -0.052331433256064624 -0.01388725210544637 -0.052215467196207392 -0.013423665897089255 0.11719059291287569 0.15842421842523746 0.033505989126481985 0.0094105851752325793 -0.049618400750972701 0.07700179323626119 0.054547587461812791 -0.051419480569387999 0.099206548961720098 0.0067640890471734666 0.10982998673264775 0.098200153682942035 0.10479342586883363 -0.017682285987431365 0.065162027812318016 -0.046517999009475279 0.11644035628603505 0.06309600621950788 0.11649129666457787 0.095898343658004426 0.0002403268797434805 -0.046173770328958315 0.021576726604443035 0.038030829176765896 0.10773873476417042 -0.056508974870707274 0.10155544586992689 0.20660591296694186 -0.036523221068974834 -0.04253448738894363 0.11596246926528052 -0.0022991980834178834 -0.059534914727952117 0.1060435882222409 0.020684985452303711 0.064343415542742602 0.071878238013881809 0.17057350979767824 0.085823078787624185 -0.051799245646188465 0.094512082106908757 0.10959236681046097 0.10547590954036071 0.11848259686153291 -0.052332562349602409 -0.045208140314658231 0.14930013375499571 -0.045392342841638962 -0.0046703435483062411 -0.038013467058863465 0.1224229473790614 0.11158420912345289 0.10180395368628795 -0.060797143187667636 0.062152266723763033 0.11364152008963696 0.14406367179919663 -0.047784365893599627
leaf_weight=67.216857984662056 798.5013415813446 70.544108100235462 24.588052537292242 32.766649261116982 5278.786070227623 28.090982019901276 279.20540476962924 573.37119487673044 12.988913159817455 2033.4252035208046 200.10339548438787 6003.7935298532248 9746.8409108407795 174.10548375546932 26.429370149970055 905.41794146969914 127.49668899923563 197.58830232918262 338.73665034025908 388.4601914063096 34.263064634054899 26.708673514425755 254.7380953617394 7.6279485225677508 13.820347882807257 652.53473014011979 46.517121657729149 53.281961537897587 1831.6077394410968 34.296378038823605 95.882963247597218 5.8717080205678931 16.556058596819639 85.607139095664024 24.900405067950487 114.18867728859186 47.86381820961833 2841.1231072023511 50.894227426499128 79.507562506943941 16.182034719735384 12.082809854298828 48.810273267328739 11.190407805144789 8.3509626239538175 6193.2782728485763 1610.872481469065 61.785987094044685 12.179060257971285 5.9318435788154602 4.106217183172701 4.9257415309548378 38.522955007851124 36.128005024045706 6.2519897632300845 588.14853516221046 19.159798018634319 11.937308289110662 18.345025841146708 11792.335494510829 10.798388011753557 53.932020362466574
leaf_count=1667 21183 818 524 394 3440 24 1096 3187 295 5068 948 158266 13765 2125 46 2250 143 1749 1007 5904 93 95 166 3 254 16154 468 188 1801 239 149 7 330 1753 63 2397 556 3134 355 190 80 38 123 170 13 6462 2085 56 202 142 14 94 308 889 46 342 27 102 71 6187 133 1262
internal_value=0.0795726 0.098554 -0.0315051 0.101674 0.0925905 0.0423095 0.0981017 0.0901161 -0.0251902 0.0621462 0.0694502 -0.0464119 0.0973809 -0.0208123 0.0217825 0.0900873 0.101082 0.0186942 0.108814 -0.0300364 0.0992707 0.0788551 0.0873615 -0.0489201 -0.0323004 -0.0368455 0.110426 0.0997987 0.105792 -0.0038909 0.0678119 0.0690264 -0.0465867 -0.0103192 0.0555221 -0.0396575 -0.0196983 0.103687 0.0601745 0.104933 0.0756957 0.103053 0.0509524 0.0828063 0.0120403 0.111492 0.103096 0.0962767 0.0585197 0.0349614 -0.0243419 0.048682 0.0187672 -0.0511457 -0.0119538 0.106624 0.0895743 0.04893 0.0131316 0.112254 -0.0338543 -0.0139992
internal_weight=54191.5 46282.7 7908.82 45144.7 19875.9 1964.31 17911.6 12632.8 1137.95 2606.8 1373.65 7110.11 10026 590.657 251.883 975.962 798.707 397.692 25268.8 562.566 3660.27 654.48 593.475 6858.23 812.058 786.415 21608.5 1979.27 1884.89 61.0051 212.387 19.6921 925.565 127.064 41.4565 766.723 94.3809 3005.79 85.1573 2920.63 199.398 25.6426 103.515 119.936 19.5414 19629.3 1643.64 100.394 38.6084 13.5598 33.62 9.03196 54.705 6046.17 42.38 765.087 176.939 49.4421 30.2823 17985.6 131.947 64.7304
internal_count=271140 88078 183062 63794 40374 13818 26556 23116 24284 8255 5765 181745 14861 8053 3549 3068 1317 2697 23420 8029 5279 1507 1173 178196 18995 18812 18141 3013 1989 334 955 261 23329 2146 393 18551 1024 3772 448 3324 660 183 511 487 183 15128 2479 304 248 145 632 108 388 159201 935 685 343 200 173 12649 3062 1395
is_linear=0
shrinkage=0.05


Tree=10
num_leaves=63
num_cat=0
split_feature=31 41 35 41 17 7 7 24 6 24 36 33 7 7 20 7 33 20 34 1 33 41 33 36 37 7 19 37 4 7 11 4 36 8 16 20 36 29 16 41 37 7 13 11 11 23 24 0 5 41 27 33 4 16 24 16 9 2 7 41 39 37
split_gain=39923.8 6185.93 5745.42 1098.97 671.811 629.978 1222.04 921.238 832.049 533.47 465.08 388.459 334.201 455.749 194.458 129.05 125.61 121.944 114.334 130.521 1927.07 109.531 107.735 206.694 104.515 150.062 100.067 99.3085 88.0396 77.2792 74.6404 62.779 61.2745 54.8093 49.5011 45.7445 58.666 44.795 28.5715 35.522 34.0428 30.6974 27.3733 38.0783 26.1845 27.3807 21.5101 20.9969 67.8954 54.6089 20.2618 18.8451 17.6058 20.3139 17.3002 20.7064 16.5821 16.0086 15.7505 27.9283 15.667 15.0238
threshold=1.0000000180025095e-35 -4.399120330810546 1.0000000180025095e-35 -1.0557500123977659 0.025559366323697538 1.5000000000000002 1.0000000180025095e-35 10.500000000000002 1.5000000000000002 8.5000000000000018 3.5000000000000004 62.500000000000007 1.5000000000000002 1.0000000180025095e-35 1.0000000180025095e-35 1.5000000000000002 1.5000000000000002 1.0000000180025095e-35 16.500000000000004 1.0000000180025095e-35 1.5000000000000002 -1.5037803649902342 24.500000000000004 247.50000000000003 2.5000000000000004 5.5000000000000009 30.500000000000004 30.500000000000004 0.24916107382550337 1.0000000180025095e-35 1.0000000180025095e-35 0.6048780487804879 33.500000000000007 2.5000000000000004 1.5000000000000002 1.0000000180025095e-35 548.00000000000011 4.925824175824177 36.500000000000007 -5.5879402160644522 5.5000000000000009 3.5000000000000004 6.5000000000000009 1532.3875000000003 137.24350000000004 3.5000000000000004 36.500000000000007 0.015504807692307694 2.5000000000000004 1.9149924516677859 1.3361581920903955 187.00000000000003 0.14263110307414109 61.500000000000007 6.5000000000000009 73.500000000000014 17.500000000000004 13.500000000000002 1.5000000000000002 1.0317919254302981 10.500000000000002 4.5000000000000009
decision_type=2 2 2 2 2 2 2 2 2 2 2 2 2 2 2 2 2 2 2 2 2 2 2 2 2 2 2 2 2 2 2 2 2 2 2 2 2 2 2 2 2 2 2 2 2 2 2 2 2 2 2 2 2 2 2 2 2 2 2 2 2 2
left_child=2 4 10 9 17 6 -5 30 -9 15 27 12 13 -11 42 16 21 38 19 -7 -21 -3 23 -20 25 26 34 31 -14 -18 -8 44 33 -27 -12 36 -13 -6 39 41 -41 -2 -4 -44 45 -1 -37 58 -49 -50 -40 57 -29 -54 -39 -56 -57 -19 59 60 -16 -46
right_child=1 3 14 5 37 18 7 8 -10 11 24 35 28 -15 47 -17 29 51 22 20 -22 -23 -24 -25 -26 32 -28 52 -30 -31 -32 -33 -34 -35 -36 46 -38 54 50 40 -42 -43 43 -45 61 -47 -48 48 49 -51 -52 -53 53 -55 55 56 -58 -59 -60 -61 -62 -63
leaf_value=0.090360709142355181 -0.047922579139951786 -0.02780422703729013 -0.051901154615811476 0.11034339420337456 -0.0064513267887060313 0.10613172448997957 0.058921096704729385 0.06665887546322613 0.12222517670050077 0.11771431902118201 0.048408343847921344 0.067913167115165429 0.050981396348767277 -0.0028821035916129552 0.07261977652886234 0.10322181876241542 0.11649037939724941 -0.045213011347671347 0.092577344309451221 -0.037892254036172829 0.10403281778558954 0.083126505470692419 0.10033421447960922 0.040974182161462008 -0.05077295201186606 0.14592786728061766 0.11844438451693978 0.069922191052960256 0.098049401278924433 0.073920692588422043 0.1005075251119345 0.071901426522542861 -0.048045037874955926 0.0091162008725530781 -0.040543143936997567 0.092344198369350233 -0.04690363064302025 0.090215436013287964 0.058244795289413578 -0.045841773608515109 0.081741595578034607 0.050053302184377646 0.14067128960948413 -0.045259186259618236 0.074994759161751898 -0.015460009382588789 0.053730138345355866 0.10539973458134547 -0.056915603453771613 0.094095979756928266 -0.048781515502002923 0.091643138687320616 0.018431166199700765 -0.052871013960509444 -0.0045508683357229794 0.033020000475295325 0.082884972213533373 0.082696322092814412 0.10637646355646567 0.097821831590358149 0.001638948227072162 0.010161009194889378
leaf_weight=5.7692032866179934 60.46991940587759 52.562028300017118 23.532860457897186 5351.5629858970642 20.468559317290783 16166.334099788219 116.10062040388584 7439.7074004746974 742.06500017642975 88.072981536388397 15.184927269816397 46.751860503107309 340.60752300545573 649.39507521688938 16.41662018746138 773.20001680776477 132.2247998714447 5.7062337882816809 850.5291359834373 251.92177545279264 4544.816319514066 37.104020211845636 2109.7877194434404 254.95275298878551 5874.5055516548455 19.099482603371147 9.3777176737785322 3.03027045354247 143.5143675096333 653.56646285206079 4602.281765833497 81.598892383277416 8.9404621049761754 11.863097034394739 626.03324230760336 438.73876493796706 13.671125672757624 72.513551145792007 3.6092291027307501 7.2405104339122799 13.76562427729368 8.3126497864723188 4.2733045667409879 4.9544418156147003 19.969855632632971 61.805652063339949 45.366940904408693 46.699497669935226 14.566997088491918 8.7264966219663602 801.19044307619333 17.342375680804253 11.830544129014013 48.884921316057444 12.152247998863457 28.945734579116106 48.098469406366348 2.8491689637303352 581.27833274006844 93.821360662579536 14.392638906836508 16.541454065591097
leaf_count=60 1648 635 524 3449 325 10442 449 20230 395 68 135 145 1635 5740 38 1242 99 132 1150 1514 3902 139 1999 952 161276 180 79 17 328 2353 6120 643 200 257 16069 573 109 143 39 202 79 107 11 97 156 1137 126 26 155 21 21158 33 173 1123 90 156 157 15 268 92 85 240
internal_value=0.0750256 0.0922586 -0.0311027 0.0950734 -0.0247457 0.0972716 0.0902339 0.0818833 0.0717135 0.0677378 -0.046059 0.04859 0.0328817 0.0116534 0.094826 0.088205 0.0748338 -0.0421146 0.10258 0.103949 0.0965716 0.0184546 0.0936221 0.0807286 -0.0486054 -0.0301107 -0.0359106 0.0208695 0.065118 0.0812292 0.099498 0.0393204 0.0628987 0.0955911 -0.0383568 0.0836958 0.041513 0.0627368 -0.0452318 -0.0181241 0.0374535 -0.0354626 -0.0237251 0.0456904 0.0132897 -0.0051667 0.0888541 0.0998621 0.0712286 0.000996942 -0.0482237 0.0630556 -0.0325763 -0.0388231 0.0715109 0.0554177 0.0648778 0.00105732 0.102589 0.0841803 0.040712 0.046809
internal_weight=54570.6 46947.5 7623.1 45844.8 1102.66 42430.1 18251.7 12900.2 8181.77 3414.78 6814.44 1766.12 1221.59 737.468 808.663 1648.66 875.457 920.486 24178.3 20963.1 4796.74 89.666 3215.27 1105.48 6565 690.499 650.596 249.431 484.122 785.791 4718.38 185.685 39.903 30.9626 641.218 544.529 60.423 182.179 894.588 89.7887 21.0061 68.7826 32.7606 9.22775 104.086 67.5749 484.106 775.902 69.993 23.2935 804.8 25.8978 63.7457 60.7155 161.71 89.1965 77.0442 8.5554 705.909 124.631 30.8093 36.5113
internal_count=271140 88078 183062 63794 24284 50602 30643 27194 20625 13192 181745 8724 7771 5808 1317 4468 3226 23413 19959 15858 5416 774 4101 2102 178196 16920 16283 3549 1963 2452 6569 2236 637 437 16204 953 254 871 23233 2036 281 1755 632 108 1593 1197 699 685 202 176 21197 180 1313 1296 546 403 313 147 483 215 123 396
is_linear=0
shrinkage=0.05


Tree=11
num_leaves=63
num_cat=0
split_feature=31 41 30 7 40 38 5 40 33 7 38 40 23 7 21 7 40 35 41 20 7 4 40 40 21 33 17 37 40 39 7 39 21 40 40 26 18 19 5 33 7 4 34 40 19 23 40 21 40 6 23 7 40 21 40 7 7 23 40 41 40 32
split_gain=35144.6 5405.06 5298.78 1006.11 1962.29 1219.65 875.174 790.348 783.687 564.222 453.841 431.335 426.077 410.445 388.181 342.491 205.295 198.089 175.294 171.134 168.481 156.977 458.065 193.305 301.436 126.452 96.0934 95.6631 248.437 151.733 113.391 74.2509 54.0862 55.6289 47.8562 85.3903 46.0515 39.7858 36.9207 40.1693 97.4167 35.3939 32.1677 30.1612 166.779 121.816 26.1035 22.2544 21.8208 58.8816 120.956 21.5648 40.1021 21.0132 65.8748 18.8525 18.6447 38.0333 51.1307 17.4764 40.1159 16.1449
threshold=1.0000000180025095e-35 -4.399120330810546 1.0000000180025095e-35 1.5000000000000002 1.8034859895706179 12.500000000000002 8.5000000000000018 3.1373351812362675 3.5000000000000004 1.0000000180025095e-35 4.5000000000000009 1.5601004362106325 27.500000000000004 1.0000000180025095e-35 34.500000000000007 1.0000000180025095e-35 6.1252911090850839 1.5000000000000002 -1.5810879468917844 1.0000000180025095e-35 1.0000000180025095e-35 0.095282599020916792 0.80313441157341015 2.1519353389739995 33.500000000000007 2.5000000000000004 0.014981483559645384 1.5000000000000002 1.4943212270736697 17.500000000000004 3.5000000000000004 2.5000000000000004 7.5000000000000009 5.3539316654205331 1.9799548387527468 719.51978888888902 0.016326802612288423 1.5000000000000002 10.500000000000002 1.5000000000000002 2.5000000000000004 0.078999375910131078 93.500000000000014 0.27777098119258886 1.0000000180025095e-35 17.500000000000004 1.9570437669754031 27.500000000000004 1.8683658838272097 1.5000000000000002 28.500000000000004 2.5000000000000004 1.3648548722267153 112.50000000000001 3.5729601383209233 14.500000000000002 1.5000000000000002 54.500000000000007 3.3337111473083501 1.4461475610733034 2.283862948417664 60.500000000000007
decision_type=2 2 2 2 2 2 2 2 2 2 2 2 2 2 2 2 2 2 2 2 2 2 2 2 2 2 2 2 2 2 2 2 2 2 2 2 2 2 2 2 2 2 2 2 2 2 2 2 2 2 2 2 2 2 2 2 2 2 2 2 2 2
left_child=2 7 10 4 5 12 13 34 15 -7 11 43 18 -6 -15 -8 -10 -11 -3 46 -14 22 41 24 -24 -25 -9 28 55 30 -30 53 -28 42 -2 36 -36 -33 51 40 -40 -5 -34 -1 45 -45 -4 -35 -29 61 -51 52 -23 -13 -55 -12 57 59 -59 60 -21 -50
right_child=1 3 19 21 6 9 8 26 16 17 27 31 20 14 -16 -17 -18 -19 -20 56 -22 38 23 25 -26 -27 32 48 29 -31 -32 37 33 47 35 -37 -38 -39 39 -41 -42 -43 -44 44 -46 -47 -48 -49 49 50 -52 -53 -54 54 -56 -57 -58 58 -60 -61 -62 -63
leaf_value=-0.052399673617914061 -0.051984976242074224 0.0011359812800331541 -0.051015078267954463 -0.050005586650093539 0.1030265021515733 0.1326291192484689 0.11609310403378469 -0.050592670737445826 0.059664147712701156 0 -0.051864798276256376 0.11455037513750406 0.12100629089249018 0.093307826638915958 0.073773693958392159 -0.0061701759587399979 0.093190336561741846 -0.050511831307094274 0.08823743980395013 0.0056660661373431802 0.011289426475321038 0.08299465060272454 0.081959261325615915 0.074497735038916685 0.00039443498242768471 0.095997490968609364 0.09666462452522101 -0.052216329028006797 0.034337003410251227 -0.052340401887406511 0.16745697236105384 0.11247314217606437 0.052270473907023308 0.08124722652370836 -0.0232195964569217 -0.042221678743482524 0.1144595227320143 -0.03854837020699186 0.010338624956312647 0.095655703753903754 0.085702419815382014 0.048696625142735581 -0.033702250135363966 0.15427437651108006 -0.050195317272154975 -0.035259223327271431 0.045476666576854216 0.029620905892483663 -0.050142037383322562 0.11995743630852421 -0.029727777696674031 0.10058655438100245 0.097901628661466511 -0.03162171801657903 0.11930374786474884 0.039878634178812836 0.098792155109799384 -0.03621247952526354 0.077540868129471863 0.10290152071087283 0.10281257459810406 -0.014024145686878306
leaf_weight=99.288059189915657 731.31331905722618 61.42857314646244 22.918129660189155 61.141340609639883 4940.7181729674339 66.587850570678711 63.534716248512268 19.283305920660496 1048.4606740996242 563.60571635887027 333.01098941266537 76.173498291522264 37.889990329742432 6428.9004452191293 4265.2980621419847 508.37214392796159 824.99724884331226 295.17494297027588 1006.4546427763999 18.871769078075886 353.89852987974882 555.90569941699505 613.43962123990059 787.14262079820037 139.03899315372109 6676.8294688723981 79.882332302629948 4542.9145754538476 80.592737648636103 40.32729023322463 19.279241316020489 4.7846603877842453 16.332943618297577 68.905858062207699 9.065664619207384 69.072667982429266 15.503347173333166 16.712379571050406 51.872832167893648 712.46429943293333 259.39567613229156 9.7663873359560949 28.212508797645569 19.970700483769178 91.881687872111797 13.643826667219399 8.9778032377362234 32.603197380900383 962.42338950559497 13.788704477250574 154.08081384375691 11341.148652549833 4639.8118467330933 11.360029254108669 17.177836656570435 4.9447228759527198 599.33955987542868 15.211418900638817 24.702046383172274 99.015427596867085 24.041884265840054 33.332234926521778
leaf_count=2687 21183 628 570 831 3123 54 48 475 2778 5505 9486 117 30 7034 8601 2823 1055 4516 2006 100 2173 947 1464 1211 748 6174 106 131878 1297 910 119 23 99 165 179 1591 31 308 247 698 384 44 301 159 2315 314 62 154 26899 234 3859 7145 3527 169 13 84 342 110 48 58 27 874
internal_value=0.0710367 0.0868153 -0.0306975 0.0893823 0.0810838 0.0384291 0.0867078 -0.0242527 0.0588401 -0.00647176 -0.0456755 0.00959552 0.0668827 0.091062 0.0855249 0.00758259 0.0744723 -0.0174048 0.0832375 0.0896011 0.022194 0.0959492 0.0902007 0.0912934 0.0669153 0.0937411 0.0543975 -0.0488141 -0.0272185 0.0285728 0.0614893 0.0832172 0.0635637 0.0448914 -0.0476753 -0.0137713 0.0645408 -0.00120747 0.0986565 0.0889208 0.0732324 -0.0358533 -0.00161435 -0.0319038 -0.0153626 0.0784038 -0.0231466 0.0651651 -0.0506176 -0.0443324 -0.0167656 0.0992535 0.0963239 0.100444 0.0600192 -0.050394 0.0942347 0.0787282 0.0342406 0.0908769 0.061307 -0.0489533
internal_weight=54732.2 47383.5 7348.77 46313.3 20465.3 2385.04 18080.3 1070.18 2445.36 925.369 6535.69 350.993 1459.67 15634.9 10694.2 571.907 1873.46 858.781 1067.88 813.078 391.789 25848 8287.36 8216.45 752.479 7463.97 245.22 6184.69 478.155 140.199 99.872 126.208 225.937 146.055 824.955 93.6417 24.569 21.497 17560.6 1023.73 311.269 70.9077 44.5455 224.784 125.496 33.6145 31.8959 101.509 5706.54 1163.63 167.87 16536.9 5195.72 104.711 28.5379 337.956 781.182 181.843 39.9135 141.929 42.9137 995.756
internal_count=271140 88078 183062 63794 40374 14912 25462 24284 6704 10075 181745 6105 4837 18758 15635 2871 3833 10021 2634 1317 2203 23420 10472 9597 2212 7385 1300 175640 11896 2326 1416 630 825 719 22984 1801 210 331 12948 1329 631 875 400 5475 2788 473 632 319 163744 31866 4093 11619 4474 299 182 9570 685 343 158 185 127 27773
is_linear=0
shrinkage=0.05


Tree=12
num_leaves=63
num_cat=0
split_feature=31 30 41 41 40 40 36 40 7 23 39 36 1 33 35 33 7 40 34 7 40 18 7 24 38 23 41 40 19 37 40 39 13 24 40 5 24 7 40 18 39 41 4 40 26 41 18 40 19 24 40 19 23 5 40 6 23 15 3 5 41 24
split_gain=31172.5 4901.85 4761.07 997.067 735.459 729.899 648.263 1343.3 935.609 566.377 489.542 435.802 422.87 4782.03 473.587 407.649 459.258 389.311 286.161 273.849 266.548 253.814 225.688 172.456 170.05 157.667 137.604 114.592 238.824 95.9759 234.589 134.436 100.925 91.3361 141.887 83.8655 81.7702 79.0626 70.4752 69.2794 64.2062 59.1666 56.4452 47.1653 78.2427 46.4538 39.8435 36.4641 35.8879 35.7789 29.4588 151.378 99.7734 27.9151 22.5992 58.6819 104.029 22.1997 19.0579 58.3617 46.3092 18.6611
threshold=1.0000000180025095e-35 1.0000000180025095e-35 -4.399120330810546 -1.1086210012435911 3.1373351812362675 2.4598510265350346 32.500000000000007 2.8395694494247441 2.5000000000000004 14.500000000000002 6.5000000000000009 4.5000000000000009 1.0000000180025095e-35 1.5000000000000002 1.5000000000000002 4.5000000000000009 3.5000000000000004 1.5601004362106325 257.00000000000006 1.5000000000000002 1.3966684341430666 0.011561079925153704 1.0000000180025095e-35 17.500000000000004 218.00000000000003 25.500000000000004 -0.69904497265815724 1.0655673146247866 2.5000000000000004 1.5000000000000002 1.4943212270736697 17.500000000000004 1.5000000000000002 7.5000000000000009 6.1252911090850839 12.500000000000002 5.5000000000000009 2.5000000000000004 5.3539316654205331 0.0072859986728599875 2.5000000000000004 -1.7108931541442869 0.19242713807931203 1.9799548387527468 719.51978888888902 -6.3097243309020987 0.016326802612288423 1.9570437669754031 1.5000000000000002 26.500000000000004 0.27777098119258886 1.0000000180025095e-35 17.500000000000004 6.5000000000000009 1.8683658838272097 1.5000000000000002 28.500000000000004 638.33050000000014 1.0000000180025095e-35 2.5000000000000004 1.9149924516677859 50.500000000000007
decision_type=2 2 2 2 2 2 2 2 2 2 2 2 2 2 2 2 2 2 2 2 2 2 2 2 2 2 2 2 2 2 2 2 2 2 2 2 2 2 2 2 2 2 2 2 2 2 2 2 2 2 2 2 2 2 2 2 2 2 2 2 2 2
left_child=1 11 4 5 43 10 12 8 9 -8 23 17 27 14 -14 16 -9 50 -17 22 -15 35 -12 41 -10 -21 47 28 -5 30 -13 32 -32 -23 -35 39 -6 -25 45 -7 61 -4 -29 -2 46 -38 -45 -3 -42 -40 -1 52 -52 -47 -31 -56 -57 -51 -28 -60 -61 -19
right_child=2 26 3 6 36 21 7 15 24 -11 19 29 13 20 -16 18 -18 40 -20 25 -22 33 -24 37 -26 -27 58 42 -30 54 31 -33 -34 34 -36 -37 38 -39 49 -41 48 -43 -44 44 -46 53 -48 -49 -50 57 51 -53 -54 -55 55 56 -58 -59 59 60 -62 -63
leaf_value=-0.052222009321515175 -0.051808391151218963 -0.050921272332562509 0.055693706392953041 0.086268266515135819 0.091473045037941889 -0.040373311912890675 0.058038943055483738 0.01430787843529055 0.089115757225830108 -0.02111758509978022 0.1117353845547146 -0.050147596485642813 -0.061021353151247307 0.015546962623784015 0.083690262614897037 0.087490151495960289 0.089329339212146058 0.10812419330734763 0.010737697395584393 0.059178209728296398 0.092515939628208699 0.093646404557001781 -0.037521718757643596 -0.031719070984165293 -0.0051984016032228233 -0.03232299149914155 0.091858428236609072 0.091447718160964558 0.013522454024237832 -0.052052179153301951 0.096672312674397853 -0.052090171876859673 -0.0030130727229553587 0.053258750722646311 0.09048772195311594 -0.028226993308749688 -0.055086769586115553 0.066280798374395766 0.069800394047770761 0.054486910527681093 0.10448864163614001 0.092852009187250395 0.096922481669412391 -0.022574713582007577 -0.041634821809032579 0.064986427448390491 0.10539727855471376 0.054064535697753761 -0.037824454435132035 0.041951364123427461 0.13573087661186004 -0.0498790396144667 -0.034536827359182024 -0.032301235030364646 -0.048642517364154952 0.10457607701142978 -0.029015317953620109 -0.058753192964249773 0.093981752374050279 -0.056934608654715002 0.079856338009047984 0.058603115208397151
leaf_weight=94.762253735214472 697.96142008900642 21.893400728702545 213.75092572718859 1450.7442662864923 83.253305841237307 21.263029549270868 336.0975476205349 435.87433755397797 600.15694808214903 684.5289869196713 26.169748663902283 322.99439864233136 607.01960026472807 114.68905084207654 61.436900872737169 8923.1573418751359 383.54212395846844 74.377854067832232 123.57118168473244 201.48694451153278 8038.2375718653202 873.12862388789654 377.13513941690326 62.533397778868675 51.696072448045015 60.55561401695013 709.50150333717465 8205.9098518937826 122.9538808465004 4334.6410210132599 61.363488964736462 38.5448231510818 42.567937158048153 535.96633797883987 503.50595198571682 54.528081458061934 30.316300813108683 29.441904105246067 82.921908713877201 149.86858086660504 4.9642901159822967 232.03370172530413 13056.864377014339 8.8914661929011363 66.620529647916555 19.80343917384744 16.064981225878 11.957760743796824 16.212544400244951 10.942791841924192 21.653158403933048 87.94702885299921 13.263413917273281 10.581917874515055 953.13697251677513 15.134880561381577 150.09794648736715 9.0930596292018873 47.331363677978516 14.314942412078382 9.3790584504604322 32.035703282803297
leaf_count=2687 21183 565 1002 2366 104 169 1461 1505 679 5491 20 9570 4702 702 81 9158 359 103 520 943 7448 839 5037 644 332 566 487 7742 738 131878 728 910 688 1621 458 451 554 96 261 575 23 386 7703 179 1591 91 31 65 308 53 159 2315 314 146 27773 234 3859 91 26 153 21 196
internal_value=0.0675664 -0.0303289 0.0821317 0.0844922 -0.0238341 0.0581381 0.0865293 0.0763558 0.0348864 0.00497547 0.0269462 -0.045335 0.0902346 0.0808947 -0.0476085 0.0833808 0.0494952 0.00923683 0.0864436 -0.00173229 0.0914359 0.0756653 -0.0275719 0.0623755 0.0816319 0.0379716 0.0849968 0.0938385 0.0806 -0.0485199 -0.0266145 0.026678 0.0561562 0.0815838 0.0713664 0.0253426 0.0513303 0 0.0304478 0.0425054 0.0782586 0.0752106 0.0948142 -0.0473818 -0.0133949 -0.0121112 0.0604977 -0.0132049 -0.00103056 0.0554629 -0.0313795 -0.0149719 0.0717529 0.0309963 -0.0503837 -0.0438715 -0.0161931 -0.00413499 0.0892736 0.0624662 -0.00154356 0.0939468
internal_weight=54652.4 7078.08 47574.3 46537.8 1036.45 3341.37 43196.5 11538.6 1672.48 1020.63 1203.11 6263.7 31657.9 8821.38 668.457 9866.14 819.416 345.216 9046.73 665.347 8152.93 2138.26 403.305 537.76 651.853 262.043 814.378 22836.5 1573.7 5918.48 465.471 142.476 103.931 1912.6 1039.47 225.66 246.913 91.9753 163.659 171.132 127.59 445.785 21262.8 789.538 91.577 60.7017 24.9564 33.8512 21.1768 102.958 217.626 122.864 34.9166 30.3854 5453.01 1118.37 165.233 20.0359 780.527 71.0254 23.694 106.414
internal_count=271140 183062 88078 63794 24284 12807 50987 19505 7963 6952 8694 181745 31482 12933 4783 11542 1864 6105 9678 6566 8150 4113 5057 2128 1011 1509 1317 18549 3104 175640 11896 2326 1416 2918 2079 1195 1300 740 1196 744 630 1388 15445 22984 1801 791 210 630 331 405 5475 2788 473 237 163744 31866 4093 144 687 200 174 299
is_linear=0
shrinkage=0.05


Tree=13
num_leaves=63
num_cat=0
split_feature=31 30 41 40 7 40 38 23 5 33 7 38 40 7 34 21 5 40 6 7 34 40 38 41 17 37 40 24 24 21 13 5 7 33 18 33 38 37 40 26 18 40 40 7 40 40 38 5 40 40 19 23 18 40 6 23 24 24 40 7 27 7
split_gain=27833.5 4544.92 4226.54 998.031 912.471 1625.45 1424.31 709.428 678.932 543.357 502.941 418.686 352.461 345.988 256.757 214.833 211.085 208.844 206.601 204.39 149.76 325.065 280.831 123.032 100.968 96.3949 221.493 121.334 94.7869 85.539 81.7335 79.7936 94.9279 137.884 65.1675 58.9698 124.092 48.4383 43.5708 75.4784 49.8148 39.3915 35.8623 35.4501 81.0543 33.7104 32.3249 32.0399 27.314 27.0907 130.299 93.6655 25.5567 23.3983 58.4272 90.4591 20.8356 20.1256 56.8365 18.8512 18.5983 18.1156
threshold=1.0000000180025095e-35 1.0000000180025095e-35 -3.6143884658813472 3.2333745956420903 1.5000000000000002 2.2298083305358891 22.500000000000004 23.500000000000004 6.5000000000000009 2.5000000000000004 1.0000000180025095e-35 4.5000000000000009 1.5258467793464663 1.0000000180025095e-35 281.50000000000006 17.500000000000004 11.500000000000002 1.0023542046546938 1.5000000000000002 1.0000000180025095e-35 16.500000000000004 3.1373351812362675 221.50000000000003 -0.69904497265815724 0.014981483559645384 1.5000000000000002 1.4943212270736697 8.5000000000000018 15.500000000000002 16.500000000000004 1.5000000000000002 8.5000000000000018 3.5000000000000004 2.5000000000000004 0.017130699534133015 7.5000000000000009 158.50000000000003 30.500000000000004 1.9799548387527468 719.51978888888902 0.016326802612288423 6.1252911090850839 7.6827375888824472 2.5000000000000004 1.2013782858848574 1.9570437669754031 1.5000000000000002 5.5000000000000009 4.1996705532073983 0.27777098119258886 1.0000000180025095e-35 17.500000000000004 0.03618823118561202 1.8683658838272097 1.5000000000000002 28.500000000000004 26.500000000000004 55.500000000000007 4.1996705532073983 14.500000000000002 5.5841334318069924 1.5000000000000002
decision_type=2 2 2 2 2 2 2 2 2 2 2 2 2 2 2 2 2 2 2 2 2 2 2 2 2 2 2 2 2 2 2 2 2 2 2 2 2 2 2 2 2 2 2 2 2 2 2 2 2 2 2 2 2 2 2 2 2 2 2 2 2 2
left_child=1 11 3 38 5 6 7 17 14 16 -8 12 49 -9 19 -11 -10 -4 -12 -7 31 22 28 45 -5 26 59 -28 -22 -24 -29 43 33 -33 41 36 -23 57 52 40 -40 47 -37 44 -6 -3 -39 -26 -16 -1 51 -51 -2 -27 -55 -56 -43 -14 -59 -13 -41 -25
right_child=2 23 4 24 20 8 10 13 9 15 18 25 37 -15 48 -17 -18 -19 -20 -21 21 35 29 61 34 53 27 30 -30 -31 -32 32 -34 -35 -36 42 -38 46 39 60 -42 56 -44 -45 -46 -47 -48 -49 -50 50 -52 -53 -54 54 55 -57 -58 58 -60 -61 -62 -63
leaf_value=-0.052051275177676416 -0.051733259059971649 -0.050650165658676742 0.043949392309658795 -0.051341659800476537 0.065491823357388262 0.093318087165137814 0.12097996015619346 0.1020787557251361 0.040225718440583806 0.08646465673052578 -0.0280079453767801 -0.051503951375967173 0.099332406378875304 0.015743221321559548 -0.063025827085974886 0.055953302054458691 -0.02423715950612702 0.085526293951822957 0.13224035994704861 0.080172616666022697 0.087374039126920267 0.076494822137619059 0.035019326133407323 0.069996440041188213 0.042413833811309191 -0.051894261221367879 0.12528386371407177 0.039360705563591246 0.029523402227098806 -0.026400828176652919 -0.042997859197933939 0.050560334237133554 0.089540661440474345 0.08287659970944547 0.085150159591679972 0.080450055013830318 -0.014735683022772865 0.067701707043723081 -0.030722799456977465 0.052971421821151922 0.095148500101467595 0.075053756784082562 0.091751928816487582 0.091202737974534653 0.087944880705999262 0.050329639883975055 -0.050366578508803023 -0.021572377893716774 0.0078576381852018175 0.12093537317336443 -0.049477399286631835 -0.048552963560613914 0.037083327219431479 -0.048330795228393328 0.092311581067672552 -0.028304651478857815 0.02026928266828075 -0.023429007926200538 0.10973628134898872 0.040591464192601109 -0.047462989931330954 0.089444934529797057
leaf_weight=90.432061791419983 695.66317310743034 20.939535543322563 378.77688998728991 20.25095110014081 447.2702912427485 4462.0522661209106 63.714766263961792 131.82587099075317 275.68190221488476 927.88770678639412 782.71839649602771 303.8359709084034 79.702786587178707 925.68223747611046 24.444961197674274 1561.1828719824553 233.73451419919729 1572.9969111829996 19.656816005706787 9179.9159540683031 251.21604154258966 193.76202718168497 98.158121548593044 183.70769120007753 41.490907330065966 4135.4723641909659 23.934692546725273 69.307820398360491 100.78266666829586 131.34623133763671 51.697871249169111 525.30976694077253 1462.3203721046448 925.24599157273769 155.51120369136333 1731.292086340487 45.627612292766571 9.633492626249792 12.030423276126387 4.0356922820210448 19.519742261618376 70.710537254810333 1371.4932738095522 12233.213604204357 6297.5812745802104 12.268719561398028 11.738083027303217 35.291163608431816 28.522459246218204 23.167137175798416 82.842052988708019 11.574003845453261 7.4626195915043345 912.35931582376361 16.38617692142725 146.29613609984517 24.479359425604343 14.29150300472975 16.29220599681139 4.9026075117290011 80.087894700467587 595.54466902837157
leaf_count=2687 21867 565 1795 494 1063 2804 48 96 1012 1067 8899 9486 180 4829 201 3615 1373 2372 13 11101 375 220 567 340 200 131878 82 1083 331 1018 1161 1350 1267 1051 192 1861 189 34 229 47 36 143 919 7857 5063 65 236 329 134 159 2284 311 101 27773 234 3859 114 202 12 84 1836 347
internal_value=0.0645165 -0.0299699 0.0780616 -0.0159206 0.0804257 0.0725551 0.043362 0.0596196 0.0793289 0.0577334 -0.0131238 -0.0449916 0.00889053 0.0265965 0.0840523 0.0673596 0.010649 0.0774867 -0.0239162 0.0844792 0.0866936 0.0775958 0.042962 0.0809484 0.0549381 -0.0482247 -0.026008 0.0248415 0.0709552 -7.20139e-05 0.00406923 0.0883204 0.0804465 0.0712198 0.0616618 0.0836056 0.0590965 0.0726232 -0.0460499 -0.0173547 0.0475295 0.0400233 0.0854753 0.0895244 0.0864666 -0.0128165 0.00327791 0.0130405 -0.0253248 -0.031578 -0.0154839 0.0645518 -0.0507322 -0.0501528 -0.0434069 -0.0156353 0.0613744 0.0858659 0.0485794 -0.0498991 -0.0420204 0.084962
internal_weight=54366.3 6816.33 47549.9 1166.53 46383.4 20568.8 3875.37 3009.28 16693.4 2998.49 866.09 6003.87 339.673 1057.51 13694.9 2489.07 509.416 1951.77 802.375 13642 25814.6 3923.68 581.503 812.461 347.734 5664.19 453.679 144.94 351.999 229.504 121.006 21890.9 2912.88 1450.56 327.483 3342.17 239.39 131.658 818.8 115.674 31.5502 171.972 3102.79 18978.1 6744.85 33.2083 21.3716 76.7821 52.9674 208.015 117.583 34.7411 703.126 5210.51 1075.04 162.682 95.1899 110.286 30.5837 308.739 84.1236 779.252
internal_count=271140 183062 88078 25588 62490 39359 18052 9092 21307 7067 8960 181745 6105 4925 14240 4682 2385 4167 8912 13905 23131 5480 2291 1317 1472 175640 11896 2326 706 1585 2244 17651 3668 2401 978 3189 409 664 24116 2148 265 786 2780 13983 6126 630 270 529 335 5441 2754 470 21968 163744 31866 4093 257 394 214 9570 1883 687
is_linear=0
shrinkage=0.05


Tree=14
num_leaves=63
num_cat=0
split_feature=31 41 41 24 41 40 36 40 7 40 40 39 24 24 40 1 33 41 23 40 39 40 40 39 39 6 7 40 24 38 40 40 18 27 40 38 24 40 20 24 40 29 19 40 18 17 40 26 18 40 33 39 24 41 25 7 40 25 24 26 21 19
split_gain=24961.1 3773.6 1697.02 1101.65 948.904 615.681 609.037 1026.13 742.909 570.873 529.968 455.191 402.19 397.888 806.2 370.911 3975.95 328.852 320 311.953 234.462 231.268 225.157 175.689 172.286 168.977 157.466 153.448 139.124 135.499 98.0118 97.9062 286.208 95.5354 88.5945 87.468 85.1602 85.1083 79.6099 72.7466 72.5064 71.3351 70.2226 231.505 66.0329 60.8194 59.0452 89.958 57.7765 57.1548 246.861 55.7016 55.2841 50.9508 48.1923 38.0725 37.9975 36.8726 34.5961 31.3365 29.9897 29.6433
threshold=1.0000000180025095e-35 -4.6800379753112784 0.86436316370964061 43.500000000000007 -1.0557500123977659 1.5423640608787539 27.500000000000004 2.429800391197205 2.5000000000000004 3.7015461921691899 2.0756468772888188 4.5000000000000009 11.500000000000002 21.500000000000004 5.8303985595703134 1.0000000180025095e-35 1.5000000000000002 -1.4503690004348753 13.500000000000002 6.5129415988922128 2.5000000000000004 0.87059876322746288 1.3648548722267153 7.5000000000000009 13.500000000000002 1.5000000000000002 1.0000000180025095e-35 2.5558580160140996 7.5000000000000009 204.00000000000003 3.7015461921691899 0.97716322541236889 0.019656138317395929 5.8054054054054065 3.8515045642852788 3.5000000000000004 4.5000000000000009 1.145487427711487 1.0000000180025095e-35 35.500000000000007 1.0023542046546938 2.1483516483516487 1.5000000000000002 1.9344824552536013 0.014035260514133755 0.03625410733844469 1.9799548387527468 1093.3368846153849 0.083020050125313286 3.0889837741851811 23.500000000000004 7.5000000000000009 8.5000000000000018 -10.270160198211668 2.7147587511825928 3.5000000000000004 2.7641848325729375 2.5326241134751775 28.500000000000004 1388.8017105263161 3.5000000000000004 1.5000000000000002
decision_type=2 2 2 2 2 2 2 2 2 2 2 2 2 2 2 2 2 2 2 2 2 2 2 2 2 2 2 2 2 2 2 2 2 2 2 2 2 2 2 2 2 2 2 2 2 2 2 2 2 2 2 2 2 2 2 2 2 2 2 2 2 2
left_child=2 9 10 21 5 17 15 8 18 46 35 39 49 34 -15 31 26 36 -8 23 27 -4 -18 -14 38 28 -17 -5 -13 -10 -22 32 -6 44 -9 37 40 -1 -19 61 -3 54 -23 -44 -27 -39 -2 52 -43 50 -7 -33 -48 -11 -32 -38 -41 -30 -55 -35 -26 -12
right_child=1 4 3 20 6 12 7 13 29 53 11 25 19 14 -16 16 22 24 -20 -21 30 42 -24 -25 60 33 -28 -29 57 -31 41 51 -34 59 -36 -37 55 45 -40 56 -42 48 43 -45 -46 -47 47 -49 -50 -51 -52 -53 -54 58 -56 -57 -58 -59 -60 -61 -62 -63
